solver_type L2R_L2LOSS_SVC_DUAL
nr_class 160
label 1 2 3 4 5 6 7 8 9 10 11 12 13 14 15 16 17 18 19 20 21 22 23 24 25 26 27 28 29 30 31 32 33 34 35 36 37 38 39 40 41 42 43 44 45 46 47 48 49 50 51 52 53 54 55 56 57 58 59 60 61 62 63 64 65 66 67 68 69 70 71 72 73 74 75 76 77 78 79 80 81 82 83 84 85 86 87 88 89 90 91 92 93 94 95 96 97 98 99 100 101 102 103 104 105 106 107 108 109 110 111 112 113 114 115 116 117 118 119 120 121 122 123 124 125 126 127 128 129 130 131 132 133 134 135 136 137 138 139 140 141 142 143 144 145 146 147 148 149 150 151 152 153 154 155 156 157 158 159 160
nr_feature 8
bias -1
w
-2.036406214189209 -0.35990771935173704 -0.007395287979829801 -0.2754468142562505 0.32182830504896565 -1.8075441059535338 -2.0864786951725423 0.07034583418315421
-2.5777417174985278 0.044905899232962454 -0.20344142573273416 0.4637730806747089 -0.05667742012983057 -0.15677755784504965 -1.9536111317928917 0.048908059272107174
-0.9032525625104715 0.0014127607928806907 -0.000837814729975378 0.22137182886114953 -0.15143290530771203 -0.14093885562511616 -1.0685841983578384 0.013653448714452399
-0.31128251531723805 -1.2359801631974494 -0.3649404180930351 -0.030949866830268125 -0.3196212417506006 -1.3147917593120875 -3.9678768203603356 0.11992558145512433
0.9143629586500062 -0.6422705239071191 -0.06684498058095123 1.0024294744804334 0.1197881344084486 -2.27200447274806 -3.516027082398116 0.006260547451283571
-2.850430715232555 -0.7646544586009196 -0.8399364977002541 2.5152855779950962 0.9277705184009335 -2.266316024604805 -2.542890790942593 -0.17074334435248062
6.060094708652713 -0.27139203404871814 2.5864175644680323 0.8166354335440604 -1.4880736988774963 -0.21270904385293932 -2.2118066510952445 -0.7135268135688051
-1.3321251461058239 -0.05432998197818051 -3.127358217211144 1.3769611186478121 2.7486907488560703 0.6950851111554925 -1.9987984251603272 -0.27166719041152376
-2.047064154657008 -0.37348518206607045 -0.7471331130277283 0.5144624699646787 -1.4088184992104082 -0.9148998753604314 -3.341773110124203 -0.3624964424803174
-0.8562160036524435 0.21276580424511338 -0.07312889815216667 -0.1162987407523694 0.3979048447898299 0.28491985559227806 -1.3199544768844753 -0.29713532563757017
-0.681631784751586 -0.18123141369548149 -0.02522988568718257 0.09016223648701838 -0.2419228414243687 -0.315357283685756 -1.0681364796894246 -0.12333204797965003
1.0030752851115379 0.16625553734025814 -0.08409268886888066 0.11857051935053176 -0.9447421115642404 0.08913825664043262 -2.899824966149272 -0.18054568893668055
2.9164468736256666 -0.6082007471907104 -0.6502251741209979 -0.49927660449038314 -1.5715858449757536 -1.3504759514145164 -2.978197148713278 -1.4591990820378804
2.900476283618545 -1.0889298089745476 0.30357728191642597 2.137360641524905 -1.7365717166764887 -1.8751605688917863 0.7464378856876479 -1.321119053235769
1.4694227280825274 -2.58665055212011 -1.8983357517026365 0.09604752032055391 2.6605011089348665 -1.3870426168533854 0.45297773062995716 -0.08813427419791253
1.7294853878329448 -0.014776472131945884 -1.6234984277805067 0.7862843543080742 -2.164598805965863 -1.0080886812305252 2.2040203857553564 -1.4606586927069003
-2.0625764496699865 0.20873167772661372 -1.2624224191183124 -0.11417743297398575 -0.046364854804048505 -3.043081211731946 -1.48196502865353 -0.2778334002215175
-0.9329920083791856 -0.2567500937313991 -0.20245174877735045 0.023460803745359415 -0.21758134720131483 -0.2974334691334228 -1.6070427568760832 -0.015770996642150203
-0.9478538659003843 -0.23817257165664285 -0.07142224001104891 0.0929758333215902 -0.21387299209789967 -0.3127671879386502 -0.9734069359502056 -0.017777977498675046
-2.4471532896303465 1.4107647149983862 -0.5182488134253207 1.2927198674836267 -0.719255917927907 -0.8666879707320758 -2.513613487042229 -0.25645409829103905
2.341366637926459 -0.22080521630438366 -0.6798628590040243 1.6235759642851106 -0.7640670421715221 -1.9105818211524888 -2.5854880403690323 -0.3947522742123546
3.291412377346596 0.10809341089303759 -0.6523504877209794 2.3415340918397423 -1.0295676522629997 -2.2133437108598706 2.879990037810188 -2.7104705937956695
2.97241826657023 0.3915312287503445 0.675081327503797 5.198988481940502 -1.3699614834350626 -1.0024719231119263 0.44453922201191176 -3.3749232412319543
0.5628346924212018 -0.6546313644761022 -1.2165061360983704 2.700958842174119 -2.551130296463046 1.909002046013736 0.30846578887362597 -0.1086485569077773
-1.3107088217692962 -0.1068778298240558 -0.7586474259088529 0.16289505776923852 -2.9777132239428656 -1.1881390702961063 0.4395268330979931 -1.3157555496033186
-1.2788658528756254 0.1901796199009737 -0.08023086561705589 0.4191044330518674 -0.5919303701257732 -0.10227040078773597 -1.5124567619011027 -0.3117765935347636
-0.8134877014397977 0.135828967079891 0.02662588539052113 0.7136354562202513 -0.5206285516637762 -0.032475606920098765 -1.6003197889698373 -0.0019181518693964783
0.8019134121325484 -0.0465444890867075 0.0661116783827771 -0.02082579555148334 -1.2575614413827316 -0.7256712027352297 -2.831764780474959 -1.2573346673735761
2.0362918195045836 -0.6879939856873379 0.3414148887298065 1.7405211335887876 -1.5468095290290131 -0.3524125609426747 -1.9276857507259635 -4.258214632477227
1.4162294149231727 -0.5346219416638056 0.3045424220952526 2.302286685885191 -1.3261146304206963 -0.15554459552661193 -2.529531996451359 -2.386369038519991
3.952892357712372 -0.8010704377483056 -2.690807249042329 0.6951458003228399 -1.7807065513786517 -0.7384477995099807 -0.30736244554536896 -2.4597515145428233
-0.14913081123591354 0.9699194121768118 -2.644220643540376 0.6113390435391114 -2.255491487412671 -0.21980252425708713 1.6177684046018967 -0.49228634143322836
-3.730983789402025 0.12514214299450388 -0.8300759808680542 -0.5629546594834025 0.29253399636996846 -2.068279769418531 0.8091570049243124 -0.42466165941321066
-1.2330446662777304 -0.3754566798031206 0.008192870773613525 0.05995561241535316 -0.598576578145642 -0.7969342634920367 -1.466160095293142 -0.02888041709509004
-0.23084167786651769 -0.07438081207367667 0.01775671389662599 0.10849954333050679 -0.25685703990215525 -0.33821000943738405 -0.8149715196976371 4.8314374492042234e-05
0.873240316184809 -0.024707646009172177 0.7412069573427322 -0.010890186850870398 -1.133122463865659 0.5156384878333453 -3.4009979169403133 -1.7283611176260631
-0.2702039700010843 -0.024720818927101762 0.9127132110247613 2.772693108150215 -1.7401533537125848 -1.9391578400086793 -2.287666751448157 -0.2898509670435132
2.681127782351542 -0.659661359687782 -1.8758918579476278 1.4159325005130472 -1.8325629167129238 -0.46643116824595054 -1.8382052438846763 -2.750164930985754
0.6550281810395049 -0.15449967805582954 -2.1457224124912 1.2618415424572171 -2.005873624032467 -1.2693490066191835 0.856414239332441 -1.2886980288380876
-1.1577051948366421 -0.05442244971857959 -0.061400303268744225 0.2121681258218943 -0.07283393729095494 -0.1469492570767561 -0.1620585603723727 -0.5016761973091277
-1.7011417803630986 -0.08618303449424713 -0.03530723866734953 0.0446948454411247 -0.05791890652421294 -0.23187671989368636 0.11050405457493584 -0.8591388988637185
-0.408708059450654 0.7185700245626623 0.5100215776818533 0.15921399528502495 -0.1276496741601183 -1.2662338520988743 0.9659049212572732 -2.3941229786234945
0.10105146187465541 0.31952716757165756 0.16572713544061002 0.21232428792757474 -0.620474348645887 -1.7262565415711808 -0.33191710853702316 -0.6789512783025851
-0.5410789864600289 0.2207115961031061 0.06651532005332284 0.9597892423213326 -0.0832555062816871 0.42490393900391243 -1.0293836948840767 -3.1704812335115404
-1.526158412749036 0.5177221155294062 -0.18730881618253448 0.5662977848697588 -0.1520665371462 0.17388512961710134 -0.7877276065425793 -2.028441089776944
-0.8834749601533538 0.10518121213449391 0.009089540244337974 0.0930583243482434 -0.17960169464524237 -0.16267851975685288 -0.5645643643377112 -0.5837837229988357
-0.8689255086783816 0.141019937425864 0.04433022525756286 0.184249132900774 -0.14767559803173552 -0.09166376899055337 -0.5852860477903276 -0.7643877927533691
-1.2039235639731167 0.16621399050462676 -0.19193453031228136 0.2300470400441672 -0.014077960993192362 -0.028778997720880883 -0.19228784926551729 -0.5798368534765687
-1.9783523416139843 0.7814490320802042 0.1234143123148781 0.5076692730349728 -0.0015153732068955428 -0.33177625851356063 -0.06391907973044031 -2.1001117704385677
-2.4427240588321144 0.06390972066316514 0.755167707606407 1.3178018663177282 -0.1436945544827699 -0.6593883448433342 1.2076911774291013 -3.659703323681125
0.6626104495006526 -0.053604013495807235 0.4581537843102701 0.36542091933897203 -0.5268974753875348 -0.4212424440227083 -0.5060256190074393 -3.6382916582262075
0.23244136440513774 -0.10420308599579475 0.058642060949793184 0.21118652209693067 -0.027811024991900912 0.018419923727047927 -0.09924568182113669 -2.510028597216505
-1.5829199704351107 0.4127846420382234 0.08219923740116819 0.256235764852453 0.002131861425849646 0.09482589751628279 -0.4246713902748289 -2.1377781786586096
-0.25439303263354035 -0.003057067685933279 0.03647044209068251 0.06095505754392505 0.006131260849936981 -0.008937172662781073 -0.12014491765467504 -0.9411334414990051
-0.5376972282538672 0.15586858094724623 -0.11093433821267684 0.3709615275742849 -0.025229454553133746 -0.16174619983572028 -0.926771473414598 -1.7793925236973238
-1.1476292670303105 0.0959605540874521 0.08414982545782801 0.10384929186438539 -0.13184155895008787 0.03640084273396815 -0.23812798877811497 -0.9971001428579748
-1.454232432681175 -0.01615061047243458 -0.14205740147730572 0.12952369390552174 -0.16499599282282934 -0.2970835221610773 -0.2859797725193767 -0.38191330165236836
-2.1390793474332774 0.02688613369626025 0.4482769262501227 0.13311234009122275 -0.25824454788279905 -1.8712389223902164 1.4753187436355564 -1.4968859161706867
1.0025424812448929 -0.23743545212176195 0.07952710736897828 0.4927657906793057 0.00173207021741284 -1.5215394730605665 -0.2853026301719215 -3.169783809306413
0.5746966986151376 0.06345743785641578 0.19019054714292039 0.2388727883866505 -0.15884096114875612 -0.10440691088982357 -0.17209754873557292 -3.23324271757834
-0.8705714720568745 -0.13767588089173016 0.07281876268031617 0.5239373913227171 -0.23133703000716976 -0.13917904208946097 -0.9350996739544325 -2.076453458481627
-1.1908744152963773 -0.19319661234159088 -0.027689059971105212 0.22546144164542486 -0.13037559929917386 -0.18352180242591998 -0.3893421916252483 -1.1915753188646474
-1.7428455140422123 -0.19303613258965036 0.28692851648737805 0.5016757271121216 0.11968930692732149 0.2554378114463658 -0.42487111949129375 -2.2557880212777146
-0.9488109541008594 0.05973330950535848 -0.08673809447931205 0.14101805897248385 -0.11601359518808284 0.06424379735259589 -0.2265618506500302 -0.6861482461188936
-1.4427593251570452 -0.028128144559268976 -0.03618840862618733 0.17586610923762677 0.17147962733370636 0.03363061334203021 -0.2525828582385603 -0.475082499439745
-0.17441846138735606 -0.0032960191920164417 -0.43834213639455344 0.07983824584501181 -0.11004740474997554 -0.003998681485850142 0.30596619815379533 -5.063098930130566
1.1601974018637655 0.645324301156875 0.5624095138021232 2.757836213712419 -0.4821502660264292 -0.22760849235999814 -0.8804237310300564 -4.055972084076743
0.6021634076427809 0.14084237096984775 0.2526955878566597 0.8180058589156904 -0.05530874108172057 -0.9851706844981968 -0.18514994355260406 -2.909264333681469
-0.623327807498574 -0.24528039568377208 -0.005658680444521669 0.3272877124705137 -0.12646272444205597 -0.13379610821930604 -0.6099776768246472 -1.645552803642813
-1.1644199465524265 0.024124787587152995 -0.007665255363591361 0.20050722185202927 0.12368806960554135 0.20609337307863917 -0.41734323784836025 -0.976400803403731
-0.6340566846399582 0.2459681040464241 0.003941376642214195 0.08322714479147321 -0.2739206279795734 -0.3155792484375629 -0.5206661716848744 -0.852061270300586
-1.0098602707041275 -0.08148014271631993 -0.2869425633607039 0.06579576506216894 0.09506344257372612 -0.07508762541056675 -0.10141815581771502 -0.6151400164409899
-1.67046850148749 -0.15660709244701057 -0.084808564069352 0.11016073146683653 -0.04976373868397177 -0.3685621461161573 0.021932830158155614 -0.5905860336526978
-3.171433253431585 0.2841047540974529 0.31219838137255573 0.38619778999366394 -0.08004104044168292 -0.7154091836636959 0.43221506886232586 -1.2405586855149986
-1.005927419914518 0.3899867470811544 -0.1350873510717241 0.4756538292502035 0.4144288845505244 -1.7791871584781902 -1.5477868299507347 -1.3052577309141355
1.068976534437918 -0.017389666618416788 -0.17841371113244198 0.4526541736423968 0.08434948561860445 -0.2016514437967558 -0.5694674839696403 -3.2999233594761295
-0.7610712553713018 0.00017333270843339355 0.00584891956552297 0.3882155258712217 0.16389982632639133 0.15539012684477227 -0.7362407370209412 -1.5123027032673217
-0.6464223691024289 0.527021680496615 0.1518216464374117 0.0884180335018008 0.25406525480781994 0.3638633729838979 -0.8505253758127322 -2.0614363614323845
-0.8996284411592674 0.09832151974593836 -0.08354262935114193 -0.005902503819627564 0.14412654493070476 -0.40403532742147746 -0.803295113863285 -1.4035139153051648
-2.419334379681884 0.45027395767862277 -0.24909802269030246 0.3902700312862206 -0.24156249962240284 0.14165395234398748 -0.1441751913794338 -2.100321670140402
-2.187616799269929 -0.026351322557440215 0.010491329866489985 0.23482225480038182 -0.1300055212835448 0.1169862505766619 -0.2182118819753609 -0.6227572572200091
-2.3414412922421017 0.08718189803775672 -0.11618860534709896 0.4450365602799298 -0.10825851168448564 0.4015405153709386 -0.7877125794760187 -1.1292811556578117
-1.210149897375858 0.2007725616516921 -0.07218643001215319 0.7857620736928732 -0.40331215411890486 -0.12372245708262675 -1.264497729990303 -0.9580029288649652
-3.131633191397775 0.9107333857387756 1.2691452262421175 2.017346385860413 -0.693336100078632 1.4465526992735427 -1.5238271938169206 -3.4114092696890523
-1.9824839359860782 0.0011417970137350686 0.27990431952743755 0.3749486714675445 -0.30917366084601794 0.40432620950592923 -0.3911177392300682 -2.5273341611854456
-2.2774469158009922 0.14299444048347087 0.16606722429444665 0.4004546276930402 -0.11275521542071987 0.16181891031924867 -0.249252855410234 -2.049304551530061
-2.5742933732681936 -0.15123664001710307 0.47330325959615704 0.882710069368648 -0.029666687656323187 0.22284902060343903 0.1094229261438624 -2.0205433767447185
-1.2707506733118943 -0.16663987381551407 -0.30944778938350576 0.059536030651860666 -0.1204751363755045 0.08343463270008034 -0.35232874152785654 -1.5016515664823935
-3.517503481281409 0.01417339406003676 0.5515624587201648 0.35879517041011333 -0.2831126698771018 -0.018096971024521125 0.21477201220963948 -2.6119923314523046
-2.2342256871371964 0.5885971502385134 0.5399159604561568 0.8730339001606291 -0.3069623807982713 0.6318331871792546 -1.2992191688599655 -0.9821463605334406
-0.28621583740839784 0.27170186809851765 -0.0012042645464598878 0.13474834079982112 -0.09171550045287036 -0.04078774247252023 -1.0024542922467683 -0.8453613967714738
-1.3349857940501124 1.121349810257765 0.3186276350977113 1.3930228870619228 -0.3190036208414875 -0.16419558730822725 -1.7657131237058494 -2.9091994614669137
-3.247828312274983 0.5424909146952368 0.8157599473850747 1.9943731013127424 -0.6233801420852326 0.15690529092326067 0.7263614756654775 -3.538614594190493
-2.390965109904692 0.017208049427355043 0.5018573355081015 1.1151649825153893 -0.6204791183206742 0.13810156014269248 0.21303213876557336 -1.1036880310708925
-0.7645313136523937 -0.030023418860586792 0.37091122946974336 0.7345816865048789 -0.3639970658512687 0.0832657630984106 0.17354442529182412 -1.9357495861028835
-2.002383222015532 0.014998737122477582 -0.2347556357643874 0.122340059462381 -0.07994109077850081 0.03869248580657869 0.023575624906712722 -0.9324007604524542
-2.4610278166401023 0.33663347284333167 0.12768744665961906 0.55795182030141 -0.3555942005168309 0.07286174896399711 0.0018647176121122655 -0.8297121840917372
-2.1233664569847885 0.812000324437828 0.2594227177883419 1.0492928573439895 -0.22788995364085407 0.7807589138583566 -1.5470833838884923 -1.638140129921024
-0.5343585192341546 0.3065252346002718 -0.09525813611272008 0.07092210512182207 -0.26898223650467945 -0.12227886287693673 -1.130526604280611 -0.8051470113789021
-3.1936944577128283 0.33049724795434066 -0.020530209028724933 0.4943225117274335 -0.2716880269461923 0.4905514848842243 -1.2913959416149607 -2.924724258093626
-2.8792063965142027 0.03541663496628711 0.1696906792447106 1.5995383574316577 -0.3991260120709288 0.6480932773184467 -0.8913018974476117 -2.9993813423101514
-2.3142884373151746 0.31568549340621954 0.13020246661974788 0.28745473340074157 -0.3186495721691903 -0.03780563971448947 -0.40999065900763076 -1.6700720960489792
-1.9253604329653637 -0.21614299620751762 0.3002232504358211 0.29568969228517694 -0.24882280012708968 0.05717398782453387 -0.24633600736133276 -1.7301657244660669
-1.6709474011245744 0.031330930979415084 0.025118703258300956 0.04981057948729384 -0.17155911453407302 -0.08671919559576935 -0.23712925102260374 -1.5141649954459553
-2.7740141871610766 -0.04450671819694452 0.3300541274425989 0.3445650599347493 -0.3502495374666908 0.30186168180211315 -0.25383287758440076 -1.4648536568183301
-2.2763974616321634 0.055911343268482405 0.23052116501402786 0.6598568129265312 -0.3285707725575032 0.7084519635746132 -1.2797427671134658 -0.2943654159050162
-0.8695437672139477 0.7249191484421948 0.07498263792228455 0.4446426031320222 0.1701214617810003 0.08948442936842493 -1.0398144747958897 -1.236901972108576
-2.299307650728638 0.35215182197113104 0.3389849773276463 2.205545605164071 -0.35189571582314727 0.23809050867371795 -1.0749724502022175 -2.826085341149607
-2.768087311004903 0.5437103649640354 0.4867910073009476 0.8736259056332054 -0.051956142522695536 0.5402119362845887 -0.5164893950623313 -4.2277386053286214
-1.9250834137238697 0.6768805454316063 -0.08284621812065873 1.03909603421349 -0.24730373465839461 0.24324069115760816 -0.9656754248262001 -1.8633357768185692
-1.1839209186279662 0.027030230309260994 0.194010476508088 0.22534932725838908 0.153053093593293 0.12471213564418848 -0.12562093966287335 -2.2367340662414175
-2.028357969449217 0.23201458236022732 0.2796810619236454 0.12953656785609982 -0.09729399424598517 0.09539946743725025 0.008690717401734105 -2.236961736160194
-2.3619208716331146 -0.07930263703546159 0.1961289223233409 0.14338450563207467 -0.23245718369418983 0.07205544085912763 -0.27854526142374025 -1.8538143445524051
-1.9064491498415854 0.14272121081802053 0.15655412223838305 0.6068991458403885 -0.22679587336154006 0.6030457702162364 -1.2952171215976716 -0.8257238834007006
-0.7499365627064021 0.30441215364963276 -0.08651958123462572 0.04723271867770609 -0.07709662674024864 0.00447770872811018 -1.175592625729034 -1.2023093542423338
-2.492060878789908 0.5674089173856023 0.2517793485016253 1.58654354985927 -0.4312975345311365 0.9263696347428354 -1.9749068544299648 -2.0714856420393373
-2.136862862880905 0.4497450115907524 0.08765773880112393 0.959184761287279 -0.5926361794218113 0.5277618507864368 -0.7927895029370173 -2.34353236364719
-2.465860128224359 0.16116977056295112 0.5433813884497412 0.5673341365220543 -0.6944008846817407 0.17918307676144796 0.02107198736236171 -1.8382252992198596
-1.6480640274639744 0.2189478062054966 0.31714784167505206 0.041492060878386805 -0.27041870702777626 0.15430440122626976 -0.3830459730535307 -1.3822490543414614
-0.8559361747081276 0.10461984448884304 -0.07546183025916461 0.15518111009329705 -0.07171150538825069 0.0010204921318460736 -0.1225776230501634 -1.175469611297566
-0.9519120516543653 0.21085273814518657 -0.6287474215124961 0.5527951893268751 -0.0945321175514946 -0.017108122684651228 0.08499138260305639 -3.5854215039937296
-1.9271077535924732 0.7989077118452945 -2.2759325425957386 1.070779838833138 -0.5393752664991893 -1.4043108673000813 1.9855257411335607 -3.9814118970600774
0.13767603618069302 0.8160883597728397 -1.355884300608226 2.482367751481471 -0.8266410887979059 -1.5715197660427869 -0.7880481214736275 -2.115996242437486
-2.603948320104301 0.9151510070353304 -2.534046384427266 1.3209888753562185 -0.32128804556080937 0.710019097511811 -0.8481646534325762 -4.927919228908223
-0.8842329338420818 0.43031417014827267 -0.41921974273900986 0.40391328413600597 -0.12091444251990113 0.2657759024091866 -0.6077824309649134 -2.221274795955744
-0.8642683496607251 0.24005971436206486 -0.2828677038432953 0.32461062644391603 -0.12105530664608033 0.45026480759370724 -0.7273051841324261 -1.6260336567121882
-0.785070708164993 0.09940514397193143 -0.05657438029037244 0.2896089740642747 -0.21767558366289336 0.13625174185334166 -0.3871622054151555 -0.9953805936471172
-0.9284575655022766 0.09753362217607042 -0.006478455397495433 0.22608891473348935 0.017116006708245868 -0.0017686812879916802 -0.14522703486162325 -1.0656111059013704
-1.2936963506504349 -0.6429840599473063 -0.2408966328064951 0.4130011043537726 -0.3424363461773807 -0.2476432624348187 0.17631924682774613 -1.5626098684590173
-1.940579490375061 0.7973001500533834 1.603169781872547 0.039069909509328316 -0.858732671661921 -0.9228127587930324 1.8644427822815288 -4.857016080159628
0.8099602267126222 -0.7057090548710522 1.2848006189983963 3.100202511641845 -1.3710345267722364 -0.4010384969326246 -0.21212357793691083 -3.9706948896916927
0.9110668302436196 0.11284314666437734 0.1596798335006837 0.028045524986696213 -0.17217006414637503 -0.1570150156188701 0.14820361983609054 -4.070406388781363
-0.8266390436086679 0.2393140396004978 0.2886411733103743 0.5471228291501222 -0.6672602752295498 0.17511114637743797 -0.4956531506930757 -2.7455918394614196
-0.11930692093632134 -0.1600235608621216 0.14104306741614228 0.3474246366133414 -0.1754744456685659 0.16477977208357264 -0.1961149466921046 -1.8365889070747272
-0.386172196800459 -0.12174070942709597 -0.018801762835060076 0.24869612174138186 -0.03270139656266352 0.039772033695088305 -0.14042495162988144 -1.479568736681969
-1.1887835831086226 -0.06458473821660973 -0.18340818367088438 0.06496449701175211 -0.04995153566560745 -0.016532071570020568 -0.15158607268456437 -1.2545190746958248
-1.2970004050447497 0.28205532476418843 -0.29145695963570933 0.09107465625191524 -0.13979105808682518 -0.14714293086350994 0.025076453803436927 -1.845997112203247
-1.968115035088271 0.6678206000588587 0.43991366403145093 2.32924387460794 -1.5520751951550351 -1.8237064743721412 2.2019702334856106 -2.8712598997753496
-0.5693710341384701 0.44132793583384355 2.078829123599572 0.3508365771160933 -2.418023935686157 -1.1962535546238904 -1.3244871928285917 -1.0527681092254397
-0.49929611859583645 0.3833472918411338 0.13718861088857404 1.080187490982769 -0.31422548264109806 0.3681107474870302 -0.6619764007548099 -4.509531753821355
-0.7325285460788691 0.05387286803792954 0.17795518872110302 0.16352260043906214 -0.2137581005718027 0.1803275687150221 -0.2737119733319531 -1.8131396942438542
-0.7473363669548169 -0.13359679716088824 0.19480441215344257 0.18441019961209898 -0.11775320705579062 0.04511711410355623 -0.11507992961185742 -1.67384327452917
-0.6474932198670929 -0.13007415614997467 0.08398080455888329 0.4213206128613401 -0.1586507246393614 0.01733893892515226 -0.546458939260762 -1.6217864222790537
-0.9234252250473871 -0.008452588027010072 -0.15812721975297483 0.10168596120160597 -0.10107643382317652 -0.08800937910107609 -0.13181213094934474 -1.198626469350719
-1.5939685524125649 0.33571819200293584 -0.010117674975839153 0.39473828944840933 -0.24952288644305107 0.054315135130060366 -0.11439673955715435 -1.4983692821404282
-3.89776850599163 0.6078262682582374 -1.3639650722619916 1.1910156006800006 -0.4420500029158798 -0.8572112520488613 0.91454773641291 -2.4838627241920612
0.5135477400448778 -0.6461251865642768 -1.9800413129757164 1.862608419792981 -1.0672078654474526 -0.10533825107504313 -1.9927516752455752 -4.255264137498944
1.3440540549217381 0.5302335285523623 -2.4991589247379076 2.958935985121848 -0.35267768049514503 0.22444899242908534 -0.9531110862380352 -4.069593294093867
-0.4103909654984299 0.03222378318992988 -0.20416947363087723 0.22585903907278598 -0.02817696425627536 -0.018865356252982135 -0.13393587764398673 -1.682298966844534
-0.3981949622459995 0.1952404770797033 -0.054894990453765086 0.24586202591771938 -0.33339529144027535 0.35284543379721156 -0.648509803430882 -1.3365407328210908
-0.370748627895205 0.15609657281368783 0.04453756213891398 0.19046985209246156 -0.20647508256753289 0.14910183481134798 -0.4191768658701749 -1.085801682534071
-1.3576200533966678 0.03770935178674631 0.021025522021147658 0.34927802992521634 -0.17237738469663572 0.08123422688606241 -0.2697251269726084 -1.2898346886787229
-1.2557534181752978 0.1090217275322116 -0.2649181616135621 0.20969150363115727 -0.06171492071366191 -0.07593550138478555 -0.09526959326153017 -1.9930198152168037
-1.4996153595726387 0.09328782797496893 0.06797575259884958 2.06049083809302 -0.6566473192191755 0.2651912908420382 0.556292548442574 -4.361551126579419
-0.9217110849876349 0.30069151868491595 -0.8512595453149778 3.437960708850712 0.06585288027669023 -2.1283807826645402 -0.6116367061386256 -1.9855603741198706
1.6783128959026143 -0.528859870688233 -0.007379758001602621 0.9558693506770102 -0.49190289234982476 -0.5630909693901209 -0.7436870353516305 -5.179573884402444
-0.2185957791021198 -0.1747878538064531 0.04262419180966348 0.25891864989117863 -0.13033701680159224 0.42171442782892443 -0.4663978461971947 -2.249180073307071
-0.2589468043716101 -0.07937098962244328 0.04886056999412541 0.2196266784456704 0.18996319509266701 0.15699530347864177 -0.3390932044177775 -1.6558090710188784
-0.22367943418951652 -0.08342649559990913 0.1126968335298627 0.5514171498605248 -0.21591527371274813 -0.1293150627914292 -0.712640468192851 -1.6034632272926326
-1.6126066708605764 0.3702792720751096 -0.3705823328319098 1.0041488195222157 -0.5794096217346398 1.288265369660222 -3.4071147424930017 0.0017864048419191647
-0.5288536101360297 -0.20902074646351024 -0.092408150443892 0.319342379444091 -0.11037438124682963 -0.050775136280041266 -1.7324733300082482 0.055615513842508735
3.3110007339894505 -0.995776867498736 -0.16426934853161734 0.29850887628475054 -0.48212212617339745 1.453732528703355 -1.0838427766676024 -0.17522614582374274
4.112258206866121 -1.2187747373315427 0.8712210171108428 0.38249150993858105 -0.22990039715213229 1.3940048595470635 0.15902350521118258 -0.22240039159273906
2.3956586402515088 -0.48197197814898624 0.09271081403698522 0.8092169321385633 -0.30446962754014884 1.6136935985939271 1.0006547708162992 -0.13948089949155218
1.6687165158466524 0.23643060395329737 0.03492754056278913 0.16905901052979067 -0.6402733761146808 1.318320586528984 1.6334281390516674 -0.007759221183771814
0.6157895991249651 -0.07602188039131771 -0.7051335042200303 0.36356685664203664 0.12309185061430394 2.182506160137028 1.6231070421320242 -0.11618283568047083
2.2765978780678697 0.1636530491267848 -2.6166200295991233 0.7856891330075053 -1.2993167133695973 1.4338015324336162 -1.1910165345638655 -0.5763492179925507
-0.8499257424332441 -0.14824732295621615 -0.09395952137225264 0.03301297777374235 -0.005949471099243819 0.48290231129140937 -1.7551353417321776 -0.42332684206228666
-0.31956962653433385 -0.3109151750089158 -0.0016468110012182458 0.2111105767530743 -0.16714459554860361 0.11123620171043008 -1.5792041698548456 -0.3410253278745894
1.5516261246846912 0.07688546717120534 -0.20617144279817234 0.048206021117327635 -0.760206348811112 1.0555450775059017 -1.6736285942709628 -0.5881843352725595
4.079630723865305 -0.13831729555354055 -1.0495150191273357 -0.03007229875547779 -0.4772829052800507 0.6575644272359167 0.38185298536127554 -3.123256952929479
2.7510009174500123 -0.5031500163776379 0.22153272771297305 0.6103411421358985 -0.5521878097520094 0.6860414879142218 1.664795632918076 -1.0606083104654225
2.3591808704769264 -2.036751740724424 -1.2800353079483278 0.175718730885424 1.1045960322832613 0.6213120606849856 0.18927888082832656 -0.2700648820971754
1.6986335293764174 0.11824428008883761 0.04801287167243751 0.36339292473036755 -0.33260730962339147 0.641295030097445 2.1701950940168873 -0.09518453469505062
2.444352675738976 1.5479004461924166 -3.5081624870868637 -0.20920390002448386 -0.6949662957482516 0.8338496956400903 2.7140073262478808 -2.8339593806303824
-0.9985327689914876 -0.6625316909979881 -0.12748911535081398 0.4149301124309012 -0.09237666125000898 0.08088959189617739 -2.449482860219836 0.013413320635208503
-1.0588344978935038 -0.2696444976592424 -0.030645859443906687 0.19476272012156282 -0.16324521941902714 0.17208508619712815 -1.8559500435420382 -0.07755239297043959
2.796878483068964 1.919234408439739 -0.7148058237264228 1.3393709669487328 -1.4892969380804697 1.13698313171224 -1.4464254166644963 -0.24675676215721865
3.3846957572902543 0.3017137310384661 0.1611716576678508 1.0023265684606255 -0.5386367935301557 0.6418730499577538 0.1690692581086699 -3.3087017338150524
1.6752020788450546 0.0842588969602513 -0.45777173295902196 0.26509760346821387 -0.11716689978313943 0.5946345936713135 2.3770689681177335 -0.8740849188163233
2.7131981775091933 0.3230032430250976 0.2375898919833741 0.7457610499085863 -0.7530167356691555 1.170744636398448 0.23534826034177447 -0.29294387743818895
0.5823000403083634 0.0859927008503163 -0.15423536047318237 0.20962656356501166 -0.7922539413133247 1.2795877329664351 1.0087719593429854 -0.07912909384117084
1.1991449179138947 0.5660525846424473 -2.4511107914754273 0.44350207622641813 -1.1850172520089832 0.46878662332049714 2.552917186066665 -0.37579061328969665
-0.7083535619354904 -0.03487789689557591 -0.009232260413650106 0.5756107409042825 -0.8433850572948838 0.6190202756193424 -2.3129644874967017 -1.0696236179580163
-0.3659424470465553 0.20808108442053622 0.05472383175412998 0.3979451452541638 -0.8201337411728221 0.7546298144057749 -1.6875954860727342 -0.563868974224981
2.70865440095476 0.12597991312163886 0.21866255885768915 0.4316578241378801 -0.748219533421388 0.2889344069015527 -1.504887126776708 -2.10118556546786
1.6931568225632327 0.2810842885342425 -0.21518728705381118 0.34394850759696133 -0.8070644487006849 1.1741211408718106 1.3575249166363172 -1.4569809296382887
2.9561346802363833 -0.25258730552969 -0.14428727675290087 1.0752545583384017 -0.6219094017956919 0.28836753179809804 -0.22773202182846086 -2.146199429572941
1.7145730196675828 -0.08723100621276743 -0.9223359142557446 0.24051459661059704 -1.0052985517668431 1.3041057201997388 0.8229966115131355 -0.7069012136295947
0.4688804799843851 0.5445877769517565 -0.6521400279901384 0.0440553314303892 -0.8002654168559677 1.3826316325996402 1.8315269498752618 -0.10621872873592064
1.1816220229896892 0.2644574030684359 -1.761459674867866 -0.27168294132563275 -0.25212049133934933 1.7693882326768335 3.453574343306972 -0.4760162141970241
-0.5543698815997722 -0.9251473341684664 0.2838846494523404 0.7562757011758249 -1.1289632181741196 0.3357229903856407 -3.289109251802943 -0.34941388819687624
-0.016907188131848105 -0.17529340673862082 0.0059391327213154654 0.15999391585116873 -0.17392753838139696 0.10487842169504047 -1.2005741694947554 0.0024299901658492162
1.9959401976114401 -0.3741667285789002 0.42777794395402746 0.04445795886844994 -0.9550485531675585 1.337820164468959 -1.211848343577995 -2.061487322385542
3.2473481686186005 0.2042026342826767 0.2590174065817352 0.9184247885409902 -0.7687081404360561 1.142032370601151 1.6641094187817997 -0.12867724821355075
1.4108312586394094 -0.47710392611074126 -1.3053563090665614 0.38967013367160913 -0.5126284594671933 1.0102405664855796 1.255625525654865 -1.186071700006695
0.9025322644587424 -0.244297003833985 -0.9569603454261866 0.4606522172425125 -0.949909152647862 1.2190330568796108 1.8400482451830227 -0.48195204798055613
-1.3211597719250567 -0.025442441087960732 -0.060793428562410656 0.19155340819871458 0.08753022160967472 0.1596662177336321 -0.3107020789785251 -1.320441182596415
-1.011093054458118 -0.24662081639038486 -0.032092208277473167 -0.17506783956064803 -0.1294378179908336 0.2217530180346996 1.4796930056537367 -1.883610033011251
0.8669739423908212 0.5483856305509227 0.016786902861740893 0.15051059805736822 -0.18012495920345062 0.031572834169223185 2.4531194313176474 -2.118936864410223
2.3453582765120746 1.5039860612873792 -0.02917161348571673 0.8087645596792348 -0.3526947411444219 -0.5847767070533187 0.6386724162413291 -3.2101039866426184
0.24076227075069045 0.32358916871125487 0.3072646491519675 0.3689520209828612 -0.3172589528737486 1.3673116103746057 -0.616768598980157 -2.3331558668891397
-0.6800626166306536 1.0381900653577538 0.28670885077884034 0.2958402657736503 -0.3796156659677945 0.8501666542392406 -0.03603654003649237 -2.566125235882419
-1.0233653788898638 0.43525068033864456 0.15489973042522853 0.17351270183065448 -0.2711227319340362 0.13962640320752517 -0.5162714908745202 -1.0343028728202437
-0.8037996707705692 0.279118887651932 0.1899537734159222 0.11362408337025404 -0.2041986758178327 0.11565896376028784 -0.8141760804410196 -1.228316876294246
-1.0025933213892255 0.4915738517836016 -0.13901783746825674 0.09837605138104855 -0.10346301429493798 0.34331021679893653 -0.21589140395958661 -1.4356077123546023
-0.8294991953636854 0.3917912215105234 0.25722623153890933 0.18357766223212701 -0.1187540328652581 0.8198699175882183 1.199271178886678 -3.029454161417079
-0.6608262114706323 0.07523676301798732 0.739330509213409 0.2125613127825221 -0.19620482019301733 0.9083795651826891 2.1878526454940648 -3.443701753713478
0.4817295805307964 0.2417483702445583 0.19464112529495803 0.29489205820159825 -0.6791983307501712 0.6307852648823522 -0.046380725206776496 -3.57394742765478
0.3654915325818535 0.2911621003643894 0.12019668407029549 0.09731875791475719 -0.3962294907582137 0.7281794004431352 0.3083217646878651 -1.8047561621627315
-0.5410647502654207 0.5122373468094172 0.40700930828432447 0.20679848741007067 -0.33343740079622397 0.735595251501116 -0.3837947938506576 -2.6152533068103203
-0.07650160444651721 0.09701271278723936 0.08200726670113262 0.017175189885409753 -0.07190685433004551 0.09499069608752399 -0.07680043881398851 -0.9914552095018458
0.09771861371872514 0.06620286021973154 0.0003964541092371654 0.2168609426168261 -0.13953290977894106 0.06026308054253515 -0.7263006803024048 -2.368757593758291
-1.1276131099812647 0.057444051826049475 0.08019657670580266 0.04049205474008016 -0.3084983439216619 0.5452268232557285 -0.0812426461832243 -1.3508153529822087
-2.1515346818928904 0.08047179067725163 -0.22682515915147705 0.04453411419037667 -0.26428781756083464 0.13982564834393285 0.29404347585135127 -1.4777906416370086
-0.7436908300943754 0.03134371268459635 0.4897189446701846 -0.0600810530450725 -0.22114514998234913 0.44371340472924103 3.7401547545639655 -4.058262952922954
1.5563862245365794 -0.2951453575571512 0.297928005154557 0.438137739031611 -0.07360092024869758 -0.03633739429738725 0.14923818234808373 -4.6946109965797955
0.9405928205043916 -0.005060135215048944 0.2384900727391327 0.11762933229796657 -0.03385069007593522 0.2695374675764993 0.5727922901415643 -2.353569229458114
0.03725872071271974 0.14783961266438855 0.21890454601312848 0.19771505308310577 -0.6037352489728443 0.5525173395098988 -0.7278761765206441 -2.216625994939856
-0.8022378850672754 0.3571651884690031 0.04412466055133896 0.14083222662505424 -0.26489340369882086 0.36076307005726993 -0.46249141697975615 -2.020703311920906
-1.0578054706694577 -0.06840114895394481 0.20049826946896432 0.08336430934158989 -0.06038622707720709 1.3588810828092985 0.06929988052940272 -2.1061907928579773
-1.0609682372076668 0.16544040820507777 -0.12707843941646982 0.08622226546090803 -0.15716039926620323 0.2994784798516049 -0.4354249447913878 -0.8666617895015101
-1.5855452720930896 0.14528889529920544 -0.08070656420465955 0.017162456285167327 0.08709782984612424 0.8232288348182191 -0.21064696451714282 -0.7047501050989187
-0.28325176648259487 0.2188540472242323 -0.4497767550273639 -0.03617062090777723 -0.4104012854994874 1.2820625123408917 1.2173250788167902 -1.2654245009222986
0.9829353473512432 0.7247612851787011 0.4282395339838163 0.8277397605558208 -0.6040747151532235 0.6638127738858102 -1.3435837880618546 -4.067080755715677
0.8978037580527278 -0.05967413501274266 0.6460367764713606 0.21447073855733367 -0.04986383026747365 0.14213700676815932 0.42142484677654224 -3.5947126183608233
-0.01676534826792553 -0.2157847929078146 0.03330696692717744 0.13063647620395252 -0.04774764042616364 0.033748280743149145 -0.5973342596668745 -1.8882564262648813
-1.1001709711163052 0.10226851009114718 0.09444764031380806 0.05040723797715835 0.021473683460429882 0.5000955127583748 -0.6067720389241033 -1.3254250679349675
-0.535311281306374 0.2276193124044183 0.16320035646195027 0.05761473473719941 -0.1346064681613105 0.049600226135893544 -0.6067496597388716 -1.4359521113018041
-1.1601477445703106 -0.020594043048471705 -0.0924030164755142 0.12802861737335902 0.16266017038821745 0.24931020951532323 -0.2609163941939421 -1.171114257601737
-2.3515278008317058 -0.16320023283099347 -0.12085196772267492 -0.00014054254827944312 0.06962787246886393 0.2862999426859947 0.3158565087779803 -1.6304785409702696
-0.9813726274516936 -0.14096041406161763 -0.41205338086328647 0.17340661030238014 0.07253634113751417 0.8708722823232762 3.6136151246846344 -3.1897251385158256
1.5259209968125589 -0.8417228671961938 -0.32489276435867165 0.4377366235925826 0.45160619699323234 -0.11085395804095555 -1.1913187554743008 -6.75188966320399
1.7715499499961354 -0.0444602880689951 0.16850790409738647 0.36178095809513966 -0.11702042335936369 0.20202175737758488 -0.10029751860480007 -2.6891042912206773
-0.23848692434775676 -0.04616920356888035 0.06880876064166908 0.06541143691034401 -0.0699517289299314 0.26845593186136274 -0.6803240308261322 -1.944541931073931
0.06311368006901175 0.4850565693570088 0.29769743166172924 0.07869268037199573 -0.14500108845062343 0.522322782586047 -0.7248040012578607 -2.4164064644325487
-0.4892122325884083 0.14356154621377826 -0.1591040364236327 0.05051507008165046 0.056592573522820544 0.04005217426232566 -0.5847819187048386 -2.788462839674483
-0.46803632552350627 0.19956995765188457 -0.05551393379093561 -0.036948047684389806 -0.20534264820982973 1.3580790436190107 1.210332824425632 -0.9297861966198886
-1.033668247080768 0.3551597639396885 0.12836471113179032 0.017463343704923306 -0.28923226584434314 1.2321268552029148 0.7233327554737604 -0.7525659116202925
-1.6469209167436263 0.25068128768917003 0.12058604943106499 0.2084128864578022 -0.801889043738542 1.684088472919226 0.09751284193724197 -0.7109087997192889
-0.9701955461559908 0.39047309105415856 0.14700349199663265 0.798119645108759 -0.8847095189345227 0.7729668526768363 -1.8424479454355787 -0.6909049793921636
0.6537550755216586 0.34389078870717693 0.11154890826109187 0.1955785897509899 -0.4934103561558325 1.7010488372188814 0.2756167067249554 -0.7841277040827745
-0.8249268228078559 0.32328970006925617 0.2386017928999553 0.0722871123590565 -0.4102804354344758 1.3028783454487067 1.299422120625066 -1.4392752774686621
-0.7858439534106314 0.4921520889379868 0.12337052342829835 0.1942973121178494 -0.5180807343601224 1.2870648208968567 -0.2839425712269634 -2.0789770940135375
-0.48848848117947474 0.05965265125166966 0.22677368077891458 0.09616411718743512 -0.06627470298119942 1.3123739164991064 1.149220229616644 -1.1956200722717627
-0.7260315494313669 0.2867188110784046 -0.5753770312317388 0.06261695673883572 -0.3683005241918236 0.8966292609514707 0.23596174700967487 -1.638470377263812
-0.7925390357871923 -0.3473631008023512 0.314628639953223 -0.09291766080252839 -0.29778847756134186 1.4205111258154506 1.560345406426996 -0.7614863533323195
-2.371657397577292 0.7903211772744791 0.6768790359222918 0.4386741084498438 -0.357076995145599 1.0851450292749525 -0.2846589572992406 -2.1050384051947777
-0.44259574899064236 0.12719499503709125 -0.0170543690927224 0.10565017966451029 -0.06103326387147745 0.08601860357941582 -0.9998903215809815 -1.1602213940138981
-1.5959929355639701 2.6918243768003522 0.43140603548995493 1.0569011936063664 -0.7968003756016522 0.47995972761403394 -0.01567496775330568 -4.239584717296072
-1.0855273612521255 0.6116114266835199 0.3597870979775024 0.17065162036701453 -0.3021265071682535 0.7747035655274499 2.5981392539805177 -1.1500054518775835
-1.551302245711516 0.09092736618940686 0.465388372140343 0.19735934723631643 -0.410543146753646 1.0884425311385129 1.0716267934733275 -1.261682913046454
-0.0887932319933008 0.2967059489831366 0.1300666218171596 0.16768855763506074 -0.5591591914104024 0.953790208455578 0.6500295065027657 -0.9163146235615371
-0.910834970957094 0.09383150856607894 -0.36399080748496504 -0.11021996283481128 -0.5726163589133431 1.3707184459198536 0.4903501147696784 -1.0656652521377776
-0.8978158597055235 0.42568768969540094 -0.06919886859760332 0.012709827655169814 -0.3967122623764642 1.375991698511267 0.9145744789657836 -0.474468196439888
-2.669224122390232 1.4975801146828474 0.14487427764744565 0.6031344391647142 -0.3498772184546466 1.1953627178071944 -0.5065651499151231 -2.2274023836342316
-0.6309077204318723 0.09928328830139405 -0.19672904493803017 0.17075276126918976 -0.24546927524069484 0.20004206756385035 -1.5441438094648754 -1.0293338547300732
-0.34589785330812584 0.8363888334361542 0.0156461423315295 0.45725863742585693 -0.48420746662880587 1.9815404426709826 0.7241439710363387 -1.9412168568083992
-0.8394553015798887 0.1739380732920215 0.03997683202215341 0.05448135064174231 -0.8371768998344351 2.0265508948126776 0.8919869379508887 -1.0568704419125647
-0.8951297804294285 0.0002492073369668585 0.19758544349588258 -0.026204925477723073 -0.8487599323749901 1.8462855914185927 0.4210481109421822 -1.8488608565113052
-0.5552322376986092 0.16605602930524577 -0.2581642121047186 0.08913759176386399 -0.9426578306770677 1.502753081922865 -0.0019523359369799653 -1.996728264163155
-0.7589207216666027 0.02835603259622016 0.0030611804602230785 -0.1506777819686531 -0.3886928102520087 1.1405901217815222 0.2844589817678551 -1.5666449236690065
-0.6829621321262105 0.35321124849765717 0.08703351081710914 -0.007760848295067235 -0.4037075611566421 1.5590705586354934 1.080428304123648 -0.8361393183972989
-1.3241480718192866 0.2029787045795598 0.2464532832420453 0.18000615883025928 -0.7628735707380945 1.9625604076510677 -0.9853084667230689 -0.10667342200183727
-0.8517070502201514 0.5963773953676479 0.29793773132354384 0.42764951248217886 -0.08712070450969112 0.05727201176833452 -1.605370279710157 -1.5765489918515634
-1.0526432106567092 1.0624506495800157 0.28905229698723023 0.6664341369631424 -0.6204188761913594 1.8474838358674417 0.8231734250626261 -1.5364225093794435
-0.6061501183551714 0.38829371795954104 0.08266942177395964 0.0004796308827635376 -0.4097324912625355 1.6451510632156539 1.77184128329242 -1.371652141853251
-0.873012577242632 0.7704887853058031 0.12403359161709693 0.33508053242188485 -0.7514604860623244 1.7969011412308635 -0.11989170851648012 -1.6539304042537473
-0.41395547549775746 0.2958602385460635 0.10668764201942627 0.041615555349372335 -0.33813388229790364 1.1292627235621218 0.5735479516996597 -1.7813398302402346
-0.415397810868142 0.478252660912791 -0.41846063747450046 0.05263033534199868 -0.6906229080503805 1.3951195229743072 0.6177845061899045 -1.0790665909281858
-0.9058276376534604 -0.11371342599537024 0.2986967467947005 0.0710956589251942 -0.4491195405145665 1.2154556315978255 0.5840947869937834 -1.9094670522838686
-2.630786997254471 0.14890318079809323 0.25193008012686846 0.4277902538822411 -0.2786247279300218 0.9198407500969201 -1.6744287921010876 -1.582650781662073
-0.7123552983158296 0.24644250215844732 -0.04582227571921771 0.06493256091931832 -0.07633573709796737 0.18333085061077525 -1.352766249053722 -1.5560573148782737
-1.427089100059825 0.3982707059735706 0.07117265208091372 0.647389188950662 -0.6293718391747283 2.167964802002932 -0.2993347066759 -0.9163493780576406
-0.6286410774704048 0.41117175727234756 0.09882240109449136 0.06875720932789664 -0.4924383762629614 1.588613140804596 0.7344836755406452 -1.3876990384088057
-0.5139295612768066 0.3003285793130104 0.057958318727575064 -0.0431749595658007 -0.4845569930460982 1.3845461134484462 1.002844683086717 -0.4596855792705066
-0.8387499932298732 0.24691888232492556 0.044523604331102584 0.020202184671245238 -0.45124365511134745 1.5277909934774145 0.6267622788961713 -1.367811093840579
-0.5606216794221559 0.15451212765139166 -0.1070078394755423 -0.010198608044634544 -0.05718075187941973 0.5312917369975239 0.40904366443760176 -1.1152851846315184
-0.31160761499067724 0.2363211117237905 -0.3558578902871575 -0.02154770824383112 -0.36090958062494005 1.2462222896481467 1.1121064550904034 -1.1366766242542028
-0.4476066218457011 0.3913116324260173 -0.5614993266660413 0.08361839897483203 -0.5177976544663896 1.2819351713970262 2.397507151242753 -0.9984986073591213
-0.4276189690489538 1.4082498787528184 -2.247503677780794 1.8427251300334868 -1.728579585154427 1.3802110286707467 -0.9525528467984206 -3.223320072096481
-0.16211644337238074 0.3240642546811727 -0.5126435238735692 0.0820317413716457 -0.10189350347787496 1.8549563762658203 1.3680945483438893 -0.5196859432965661
-0.01977595003095378 0.49007243690206503 -0.29026522037509944 0.029385686132394784 -0.5695239728739934 1.2152471116390757 0.3841226786629993 -1.3348237439801407
-0.6015287431633575 0.3835194003614295 -0.161680462443476 0.14711457551942175 -0.31877876180307263 1.023069529266089 -0.5849756561674382 -1.167847799609381
-0.26076243658483067 0.18791160751578428 -0.07002802026209036 0.16356778045041254 -0.49006828921222617 0.6415908522273883 -0.28728914770382064 -1.0754051192559988
-0.977426570242018 0.19059232588272096 -0.1976701401358355 0.15493505735210256 0.00675423155087207 0.5904469229874391 0.22891267112583846 -1.1321634669257825
-0.45499334144700554 -0.308790230595595 -0.4223756510931652 0.006725001814354092 -0.3974906869760053 0.5850214422521309 1.134574508397899 -1.5288145553351973
-1.4298702130080612 0.4334652239410123 0.7354530851905816 0.09913584978840118 -0.7546035562542586 1.0866672622575688 2.394381234616806 -2.285004294899922
-0.09091208740691936 -0.033145893380837066 0.48690201031701474 0.5562455581973593 -1.4563172151059405 1.5183488782166359 -0.09743481240849716 -2.9385619875738263
0.3132883416115111 0.2539521549658811 0.1503470373156831 0.14687925448617212 -0.41816500920201705 0.5508410324028348 0.6215783416099463 -2.5723252873768407
-0.06856273548687941 0.4508601894149017 0.07668388148689903 0.30107650898395516 -1.1926847374714984 1.1013888361408968 -0.10556645797225794 -1.3651866965544608
0.01657943024257924 0.21467421409707643 0.06964989139907252 0.11982152680302366 -0.5076460448675421 0.5421051091399519 0.04714850895772649 -1.2709953022749125
-0.09537407538417941 0.12774748160663615 0.038327586662545654 0.04356312737281748 -0.37317772174326047 0.6199233606584007 0.08499904275404069 -1.561802059070576
-0.8526747055794859 -0.008978009851568491 -0.2602557286214098 -0.03328886683573046 -0.08226197826765591 0.7189172854227437 0.4124160351042466 -1.16763781112843
-0.42460821417349 0.07415260911290891 -0.5203978294838081 0.07657199426088879 -0.38374448695621927 0.5632649039192704 0.6999464594051064 -1.6997750458791536
-0.5504942471076686 0.4747938732638276 0.10055940525947116 0.2665196075301568 -0.9991263429543995 1.7767042684846233 2.1158513673322634 -1.2401967633618716
-1.8089541379642755 0.7398719641736907 0.6022087959998585 0.3619931563637455 -2.249947807406472 2.407410353082195 0.19000263827745734 -0.39579177790827025
-0.11404369986207996 0.3448309472131884 0.08532000739053247 0.24087141528178435 -1.0239341084428353 2.029841524644784 -0.23804497259225954 -1.4293011220549348
-0.26816289718013575 0.07272188959110906 0.13292081051304688 0.015043695520187361 -0.484125764503501 0.8303785365763287 -0.11581229070663548 -1.375820262787331
-0.1970212817595508 0.17140139539010416 -0.03693553089052115 0.049614471232964974 -0.4914430036060064 0.7655846543785714 0.02837205245694019 -1.1240951612248042
-0.06803760503995071 -0.008788072432938776 0.021723040881626132 0.10865825263294093 -0.3512356327818416 0.35594120270536983 -0.3802033746743802 -1.90933451493505
-0.777292909999556 0.07081289034153783 -0.21474097180515034 -0.0030788589895265617 -0.35245729198741177 0.765478410341863 0.039744727666440216 -1.2679236622057781
-0.34457940216072597 0.28993847038099474 -0.25889509800646276 0.0006431262901968049 -0.552945849393175 1.1950116960649144 0.6827247015824021 -0.8961007437686878
-1.1135829762470282 0.06636185452853988 -0.8402343395282998 0.10772142224577252 -0.6360509679781678 1.4276878637000139 2.159796084377571 -1.2222365888483866
0.0017757927463968315 0.03670172684323203 -1.4020521737172573 1.2159630821919354 -1.4157071145843134 1.374158530458705 -1.5623525713901971 -3.6582834316644792
0.15966388976909274 0.6515252543905504 -0.7801059471459247 0.44844321189413017 -0.5364121307658416 1.5925993580428242 -0.31409400882545 -2.6681251944029754
-0.26981928724805737 0.1535638775815033 -0.19797758445231045 0.06228137870065581 -0.4167554377217556 0.6897961231272672 -0.1134613592241652 -1.4970371170824057
-0.0983885844820831 0.173048593967176 -0.12227027370687718 0.15053797674850564 -0.6370387394223804 0.6512539043495047 -0.3260761080244868 -0.9309097358228886
-0.15326133964819788 0.32904373845438706 -0.10324581274464074 0.09141411993134886 -0.2591565816362455 0.2073854452174711 -0.4056723494947656 -1.1085610687039322
-0.6111729597371418 0.18798378242549665 0.06832880934467711 0.1552511692835271 -0.443803544549049 0.5929058676059689 -0.32187224932192804 -1.9469014347686877
-0.6394708789354699 0.33637670191950997 -0.3345946756763375 0.02738890553720741 -0.3047247104989111 0.5691969506998604 0.4223133072221448 -1.9016422823251364
-0.6597682784814909 0.14173112998934567 -0.3945560297079683 0.011331307731530571 -0.6087932352637482 1.6404042374119372 1.0415883869700582 -1.4775618119964777
0.045125466146679116 0.22045447330912094 -1.2102459934969447 1.648335581862371 -0.2602911658357847 1.2164036386723858 -0.4367355342243666 -4.443875242243678
0.582927627655569 -0.08413857758848292 0.2763379928103815 0.8595265992699161 -0.5351749679547115 1.29766780787509 -0.80985773306569 -3.7711108608442903
0.09815280035268215 0.07972929576217022 0.15989945910976894 -0.06201608179658724 -0.3551857259667712 1.0281861255022373 -0.1554270569744825 -1.6096090900750233
0.19299970678777179 -0.14665635479619854 0.18134653962110003 -0.017948540188828743 0.08083238685657523 0.11264015062838473 -0.16405259124307522 -1.7590107947389095
0.331220569074274 0.027890943302230548 0.1367445740233449 0.15431744934740133 -0.32325929358079364 0.24081542755794483 -0.5179090941027414 -1.7600766714487732
-2.043777029076448 -0.21509857683998246 0.42998297455680046 1.6911999721019384 0.024785608708925544 -1.401076219849608 -2.132535905719113 0.11627114444504016
4.539021688417993 -0.7539195253197122 0.5224260269568741 -0.26633737062607077 -0.1567328611884875 0.1355732090450983 0.586989886485275 -0.2051492418716805
3.7296347671157264 -0.904101368048571 0.583402213729374 -0.313539049010243 0.09030845323619552 -0.1434840177713856 1.7073444458593798 -0.12124015521947662
3.140419658403724 -0.375627255046305 0.29801890610189563 0.2129570625344568 0.3338323647540049 0.3195231534019545 2.114871122241264 -0.09115143674001125
1.7819857399447376 0.29509124611377 0.12298331831823373 -0.3815818810807694 -0.20396173363615744 0.5692879217748574 1.7232774330161869 -0.0483798984543129
1.9628214486622282 -0.015467405803257783 -0.6197702843655085 -0.10674993094596352 0.3574358012783607 0.5794233233436841 2.272259498933175 -0.05802131585492187
3.1805101562950924 -0.0610581201873055 -0.8853715881414654 -1.1272744611859769 -0.4220744154236442 -0.5582443868512859 2.497639261821056 -0.2729715598378366
-0.9399185831998977 -1.7425274337072898 -0.9354748491835525 -1.3810510287682956 2.3710526151764846 0.5127426564706985 -2.704220338611032 -0.6566268119787466
-0.5504581073784616 -1.7358582975289023 0.2536141841513574 0.321730970812367 -0.32412395879261535 -1.3624568453823953 -1.7826082878792784 -0.6209246117757896
3.8528749037090426 0.25470257695797904 0.23733099751088083 -0.05876290881535562 -0.3402402820681698 0.49618874194334595 -0.341430989729516 -0.8395893220988793
3.1925040671931297 -0.013467924259266406 0.0022800218435354846 -0.33604046018159794 -0.28749743630126934 -0.017610668785929318 1.257176354908274 -0.7649842400986335
2.202619424970978 -0.2135936558071378 -0.008398867463316861 -0.2531019971413431 -0.20563608550634604 0.15832089045729625 1.9802348735686883 -0.44828084497779574
1.9293525909640357 -0.6519921364021726 -0.24389189301692193 -0.9923258393527598 0.9866909561529829 -0.5325543256903056 1.5694938936744227 -0.060765656725295436
1.5249613818444043 0.1783810063674752 0.1581462813578297 0.06529893153987953 -0.07841562887367692 0.19243333276932462 1.9532047641744268 -0.07903065619337735
2.3223018849609582 0.8712216562555286 -1.5968991492928866 -1.2970124248268065 -0.0550938112692716 -0.5342609563794067 2.640165454490627 -0.5533438352166336
-1.4815411762639918 -2.9639434999562733 0.7198270192516834 0.5613801433024097 0.5530319804274981 -1.6939183866379763 -2.4384602795515065 -0.45098707091307944
-3.3659479147213807 -0.6629846609816866 0.6584341278166193 1.029938951838216 -0.16554247437010172 -1.5728961758303281 -1.3421418069209228 0.1518889650345745
5.010326148289888 0.8555851303776614 -0.21826786557076172 -0.048988087518090584 -0.8519619164074368 -0.3218023998586941 1.3917183538015405 -0.43103640601909987
3.063830351237435 0.24131027247468506 0.09444095318006829 0.060205572474402835 -0.1705888458312721 -0.24663980436378186 1.3880766282428751 -2.5727470602931595
1.4287364051942666 0.007365523842616517 -0.06434312656418811 -0.29501291020409626 -0.12874195313203574 0.2436071105392003 1.7371355974192588 -0.5161608850478738
3.2884582062381726 0.5633136346279692 0.37010982095430833 -0.1291891763810058 -0.25560853626975666 -0.005016425444215211 1.0577010408365357 -0.35029090278711283
0.8793005991680709 0.09667772357530541 -0.13853908838297824 -0.03617574639998772 -0.5695539887078853 0.7348430018156418 1.6663513561166152 -0.11519359159393439
0.5521297470453361 0.03678258960251203 -0.7247801472917648 0.11584551296806311 -1.0934057294616564 -0.36206180412314204 2.3527003047832844 -0.2383333376522323
-1.0141341289543613 0.48401074494464114 0.5824601178039139 2.4314023740365847 -2.178162231691876 0.19024461602641973 -0.46298665387248406 -3.1420188504546473
-0.3472935864877975 -0.6941863774471618 0.3818201707285285 2.3024360612742667 -2.3549894640986473 0.6258230836107938 -1.2322230479411065 -1.7850283550531216
3.616775841438864 0.18994476808607574 0.5643444213873514 -0.1037907343235217 -0.39405064709035154 0.11965258137241358 0.35655419422593715 -1.5198933793491927
2.019584360503042 0.12284599563662638 0.08787942669636795 -0.03164644285788021 -0.28772210749971916 0.29878399215759277 1.6340919818975173 -0.8359462498207235
2.9020946167692627 0.22847020864787204 -0.10888510524660233 0.8723478897259261 -0.38199465021134904 0.0006328469591021513 0.9323978972015492 -1.354107559103178
2.0688643654449757 0.26434715978464574 -0.5722848198485331 -0.39995409376964386 -0.607095434413753 0.4432824283562907 1.3047699709186944 -0.5525865835579498
0.870221635565317 0.20038752556752396 -0.3124855047084108 -0.37590037692735534 -0.3788446199216544 0.5219771258043235 2.184853718074495 -0.08706735025428358
1.679582606848613 0.036516746590250566 -0.20713726377434816 -1.2805826742538025 -0.06100674835508957 0.13261934491816194 2.2881046115920123 -0.08667273289230515
-0.7209818013268414 -2.0779328292355803 1.5124837091855605 0.5923354447062823 -1.963001355620244 -1.0137727449989944 -0.9902486015636214 -2.0501761230565982
-0.3785172875157983 -0.6460588200124993 0.2879956570766169 0.3216275168259859 -0.8424740733362587 -0.8590447103330641 -1.8194530310872343 -0.025229992889908903
3.2223440333910176 -0.1236635444016434 0.3905774341334194 -0.046976170343343115 -0.6287569738055792 0.5457746642909018 0.35129416455713103 -1.5642587378130637
2.7839175425264786 0.1439623682484933 0.42438096770053624 -0.12762290739065596 -0.2283950400525343 0.0481882062567085 1.9621838404283967 -0.1204210756743409
1.8513281282201879 -0.3086802294584101 -0.7850954451734637 -0.49896817042764535 -0.2101547549413239 0.5482243496542982 1.5198791759981707 -1.0258295991467175
0.7600844553433999 -0.12503997185282867 -0.6359064324232109 0.08412978324709464 -0.6448036865167432 0.4599361567436371 2.4195012193827723 -0.5915671098405397
-1.2742072286331503 0.13394594974084112 -0.08563321491933107 0.39982431072513563 -0.04077205473584111 -0.3043458250821576 0.5017655076995469 -1.0727419622257253
-0.7983103973704173 -0.13465455681748356 -0.1390231628365775 -0.17573064423082352 -0.2462515452014793 -0.019573110004269756 1.91227175477337 -0.8691579577380204
0.5030812154694824 0.43885591956493314 0.16874005986032392 0.0726874182095773 -0.0936948872581227 -0.19024425250054194 1.93179753952339 -1.0900681866305684
0.9409028469380212 0.8408147436905675 0.03601373967925159 0.31645122218154564 -0.0795037717562801 -0.7717188230346732 1.7741817741009591 -1.0838717103020912
1.1603053787777133 0.3956906108153859 0.520517384299489 0.9988785402885634 -0.13236744330993488 0.3762332934486592 0.3933765755790727 -3.594191319834265
0.15095848765626751 0.6800092249554655 0.2808114015354598 0.8646378257344284 -0.19447013709274774 0.13196016418452894 0.710453688940365 -3.2285855777482078
-0.9913440473505314 0.3622185157897736 0.05118616854865393 0.40784733515085086 -0.3289480919658009 -0.05477110092662346 -0.1183912191950427 -1.9210463600570842
-0.44979177407062243 0.1574439449324216 0.15307428515944954 0.26406502509010465 -0.11509120328507555 -0.10019817541594955 -0.024419971950046637 -1.903485197736444
-1.1248429873978192 0.512931314207484 -0.2514283125996907 0.3727150238586591 -0.05708712076257383 -0.06265041509831815 0.43394322700059734 -1.6208977991415952
-0.5279062756813917 0.2065414894198041 -0.007560052937263917 0.7315337998724507 -0.13298157243498565 0.08323937603176845 1.8446598823581883 -3.1734652070239155
-0.6347523937603503 -0.10948982037606986 0.7334650140996601 0.7379039202328792 -0.22877971346979908 -0.21311891264192565 2.0022556759693195 -3.6615447269528687
0.5004045621375637 -0.0768935018479397 0.6326664842872869 -0.021984833294781958 -0.14646850851051776 -0.007022129360448104 0.4875228282459867 -3.7420808745576846
0.4493403456457483 0.20331914137301432 0.20152197180366738 0.19818980173710732 -0.1225310138815312 0.11899376335289791 0.4701153361900133 -1.949335010466456
-0.08304897226377261 0.04466250866401689 0.33287877670927535 0.18357699946348172 -0.06309040419376899 0.12126541652259792 0.19620052318524017 -3.299726968919461
0.02399875933433307 0.05667444661571519 0.043565513184433996 0.05342127664516348 -0.018978240436951843 0.012856047145493182 0.0430131380047231 -1.02951338593875
0.30522673466631156 0.08560621239885813 0.1742111963503119 0.4528518022569623 -0.023135249796466528 -0.04255153040200624 0.08886142745887793 -2.7594257958517048
-0.924519950441932 -0.08112522810155831 0.14242835036266643 0.24412889153053186 -0.17504712360837593 0.03684934294611547 0.4925171252111744 -1.8313306873457929
-1.631962390066144 -0.024840264256487138 -0.4062617248396608 0.29492338124101347 -0.16943782490905213 -0.549774693350233 1.180345041017937 -1.08050185914202
-0.5562927772324349 -0.39905075590291483 0.4073170151935832 0.013372651922277323 0.19295230406370356 -0.7580669093595205 2.5886208180814005 -1.8992324478750398
0.9561818081232207 -0.26854611432788433 0.2302478917423283 0.37949674984861703 0.40544920686498465 -0.7945305458782164 1.3288741791379666 -2.562732565256643
1.0511542305852115 0.022572777525346255 0.1629093623199544 -0.09429039694467795 -0.021587103067260527 0.035469068630918366 0.6705019629735565 -1.9909916467697935
0.2898931399072726 -0.013102874228597017 0.2836337914171255 0.45440356650713454 -0.1408427869034931 0.11022838897520337 0.0830442983222851 -2.9710020009966893
-0.6005963672537297 0.1695485509058955 0.03018525834370589 0.4338718663886934 -0.12405423703843182 -0.07031641838267522 0.3570439615483596 -2.4718760687857486
-0.47601855391185355 -0.25661806906333684 0.5597693736367308 0.5287003375770869 -0.1138769888965907 0.4681877041057674 0.5859792859591931 -3.4756332998674146
-1.2859976741174 0.3887800574033376 -0.24783303561137635 0.224923522481568 -0.18368533851459373 0.005545196296541766 0.1310295381142351 -1.3144092433473245
-1.7697936779897454 -0.06904329931432862 -0.5884396937645846 0.4819598833837735 0.13993857378861563 0.40803304979900457 0.5554996535886819 -1.30623229635504
-0.25048038463971456 0.17628173508836442 -0.13569576038578535 0.05813482731800018 -0.4147549338094403 0.9389079702271801 1.6892501118162602 -1.5957560248337095
0.7973696989886605 0.43627582811852506 0.913474885399959 2.3987406987815536 -0.18215026043849836 -0.29040487136550563 0.4122752944031838 -4.589294636573923
0.987334791630857 -0.15955865348378592 0.4095726681170906 0.44788131261711894 0.3715773061205403 -0.35463842213600083 0.8127321442575742 -2.8431188249043364
0.3633616041965051 -0.1557896683848045 0.25799242649480003 0.23047468070420918 0.04870683454930447 0.05975555179668035 -0.09093985989640352 -2.65046611236022
-0.7952036534587272 0.09836582609494648 0.12787221072884847 0.3849864340532373 -0.08996747966786778 0.0851576883614018 0.2380813712569984 -2.23250710508945
-0.6711751240844225 0.0840069953720898 0.2314221914967279 0.02095854083798271 -0.05410641819545564 -0.18918741613145157 -0.04228067128854485 -1.899683422530267
-1.1015967129573987 -0.04048294457152617 -0.27077956643849765 0.07863109080884656 0.2298402679176672 -0.2150543191849668 0.27720370515648773 -1.2278621895932644
-1.768002041089359 -0.1953387119995036 -0.13776828255651496 0.20545026825896762 0.37412448093418504 -0.5439475335672191 1.3791251735562393 -1.2201008411135539
-0.7337816004853237 -0.05846106083484526 0.2655646541853054 0.2756960155960144 -0.07491588083530765 -0.5046183324634149 2.985954580891642 -1.6998317867829353
0.22199851035308527 -0.5418043497618568 0.4957367491674076 0.21423654144804938 0.686613687361052 -1.5411716668490278 1.7042566777888424 -3.0375910157263313
2.007196525612846 0.17909170050453715 -0.03249980597287938 -0.05928601487776419 0.016673509987278567 -0.07528431422851645 0.42509806103680714 -1.9675377985109774
0.25950186557766064 -0.06987277668099995 -0.010049134253371339 0.11531017158538925 0.1719520492715878 0.05382963186782885 -0.14874140237956457 -2.3941316752738007
0.2832470210797293 0.12547305727210367 0.4162701138556928 -0.026151654324324647 -0.026183510433991142 0.21349793943843842 0.04312335909851983 -2.9283048427946747
-0.276432669612781 0.12650989608365026 -0.07245804571625736 -0.04559213058820455 0.04966449694140618 -0.14080284718003 0.17697913170789198 -2.9287539776904286
0.00020099024254871534 0.26532674329938416 -0.10257909491845901 0.0005254117597596197 -0.4219009427307583 1.0620967420654783 1.913160377154227 -1.1750053552537985
-0.9836117378197738 0.45197748037840685 0.269816035993682 -0.07020194786317455 -0.47127799253809766 1.2832929302511313 1.4954072617775704 -1.1376216700382926
-1.629636656905662 0.7815842650640782 0.24334097950517064 1.355854570368324 -1.011832932483426 1.626441743408007 0.966949620870184 -2.597823989016109
-1.488562591219373 0.4236935963152062 0.9166041375542449 4.155705988532818 -0.8980746859391961 0.01482188924742922 0.007001056373589165 -2.454647690546656
1.8344734702004937 0.46534001933668656 0.48248072405514564 0.31356576397820557 -0.6036048981722528 1.427488438731051 1.116731410822291 -1.5963315690248576
-0.26419331168125826 0.09860756851476121 0.5009934994835059 0.5928400914944438 -0.41139758235433765 0.8966951584248806 1.5652610383311623 -2.1636005796952955
-0.263626743656284 0.4131421797570639 0.2742243409003242 0.25749116106333014 -0.27669554335186897 0.4276702697023982 0.6039382384217812 -3.7836359746217654
0.32507341653027866 0.06276930104810466 0.37027190879876304 0.37096331764840235 -0.20396607947989076 0.882256638951016 1.7202314891566992 -1.356752268228814
-0.2929510534954035 0.28886596784141405 -0.7321440268535654 -0.03621554509665084 -0.27660396344964044 0.3149600982601488 0.8366251753707047 -2.1969940234229455
-0.21842868793116132 -0.193464486716471 0.3179309972114567 -0.05526354019994478 -0.32952341603109736 0.6827354408212305 2.361190793749408 -0.9025472584171581
-1.593417543142798 0.8582093567269187 1.4981314446768215 1.534855115822284 -0.5058615997714453 0.7580176626991406 1.3333035994278912 -3.664250730876587
-0.08737126740019519 0.015456327551689908 0.13357661526926223 0.2001644920792659 0.007970449827522375 -0.10509735196567882 -0.09288662905188572 -2.354492157009013
0.764994515079195 2.0655622855713136 0.987110562890448 2.853125727303014 -0.5287918800419407 -0.2578923821212722 1.7453544948269386 -3.394240081406428
-0.3461016758716752 0.1165889088374702 0.22507780399585042 0.4603584259476894 -0.2648115142044021 0.27000192422103186 2.629508452952552 -0.9862002813260919
-0.7460941714226574 0.004128213428142458 0.5429399747024664 0.7193683187682514 -0.40521040879629155 0.2554215978367751 1.816286387773005 -1.479022937498568
-0.0340403133863727 0.14139977271917717 0.08187006726851664 0.2836478866319062 -0.48123753490574794 0.52331559418893 1.0405052847647918 -1.181414570090486
-1.2056539666657518 0.20275433357787948 -0.5880711068365696 -0.027556170928809798 -0.5643588134650543 0.5602209413884169 1.4548192334607262 -1.628183974163882
-0.8150622107300772 0.5095157452405543 -0.08074376715964104 0.1938412306420082 -0.5471573179362972 0.8871700712539659 1.8204862134442479 -0.6803827859989302
-2.5275256241851665 1.6643413889591772 0.638280277533485 1.788588275555688 -0.6140845813359217 0.9649121960967264 2.100212573079353 -3.7941487804207092
-1.141431636233439 0.43868563000953786 -0.08527656862057564 -0.023709448378983033 -0.2007965243805261 -0.24053433663660428 -0.9472668738109142 -3.691282219878957
0.5813724317075541 0.311252694788519 0.393977923092683 0.40638546357112726 -0.34779328603284565 0.7011689651812469 3.0754339729130313 -3.105047887963279
-0.5222948151459246 0.12157126652652028 0.17321784386162342 0.7020916563361752 -0.8771967512824799 1.1091630485054473 2.457697451358989 -1.6657181251889268
-0.678942754285369 0.319549421415192 0.2621551368456878 -0.4197627542484178 -0.9115831318788978 0.814822614096546 2.000765973372178 -2.4664851269457824
-0.4895656391472212 0.23921125451008962 -0.21079998966338703 0.3727594140338858 -0.5167454762461948 0.4229643403151315 1.2606764167761184 -2.7756604063694166
-0.8234988746815969 0.022961684621573997 0.3833331963821408 -0.403776719591265 -0.42557181743040307 0.37043093247335346 1.1633998006463824 -1.8396483402197328
-0.5454127168411905 0.4447550748565533 0.08812338406205633 0.01466241387322803 -0.48535889886951455 1.10469232413379 1.9822626204205247 -1.3505158678973577
-1.7474455423952961 0.6925008846747134 1.1019244171694327 0.6464703047146263 -1.6793264156596983 2.863878261891683 0.7850261308442152 -1.3971190483941296
-0.6335864117004342 0.4805013404911902 0.40838303333473913 0.9192453213174505 -0.0048256247660969365 -0.28594763357524 0.006840006328654447 -3.431581597011657
0.06389149468315836 0.6163126248614079 0.6647583232015983 1.5828105242125687 -0.5930029280630578 0.6586753639504002 2.1135662975400242 -3.1818637675707446
0.2270243001248471 0.5471940307455369 0.2098239847341885 -0.040887398542543196 -0.3801788363020293 0.8612819306077681 2.669433887300277 -1.4686707916094752
-0.2248461070505563 0.6831161632092173 0.06897531033127469 1.6631858520487395 -0.5835544655944553 0.8107134377600325 1.3316491522927625 -2.795437262321549
0.20524923454077204 0.19649831751697722 0.10772857135432823 0.098458035083552 -0.1662805630945401 0.4396921734294015 0.9147201220797685 -2.091922389703683
-0.3171892935685816 0.6886798002634508 -0.8332114561376855 0.1834847914120878 -0.7022332005211315 0.8017326311749562 1.4142582269490702 -1.7817631375871876
-0.5140997464199408 -0.21034108821253317 0.40388603367361875 -0.11396243868980016 -0.6004815839310919 0.48453105892526516 1.6458218211118587 -2.656129395677209
-1.6121028416718923 -0.11817384050033142 1.7083911292926874 3.3315563772067107 -0.594810216104662 0.7449827185591946 0.6612396415048631 -4.5394482195914385
-0.9167879091294717 0.34794085937747843 0.3870897535205138 0.26517588469676734 -0.1862092016346697 -0.20882750662234195 -0.21879396881301716 -3.9437429097948886
0.06162062452153094 0.7245126446220413 0.8187801012547236 2.718495280639122 -1.3096889601707007 1.741671538627843 1.6938877996429973 -2.6695380779706355
-0.2308175484808359 0.6074325692537024 0.4204065642649306 0.5873185298241148 -0.47908160716489423 1.0748972523339182 1.6154971089443126 -1.946766726919467
-0.4231619941132905 0.30264819891104794 0.1973830794982797 0.05840555831091637 -0.631511342859878 0.7443209831255484 1.724458293857374 -0.756010535602309
-1.0179953932070696 0.23377211380737817 0.2847365530565882 0.030372560725300646 -0.5350531846876174 0.9616427946175663 1.5420880857491266 -1.7402262657474825
-0.3835629272175138 0.07024946297084772 -0.18280830612159807 0.08129892864109767 -0.06716363550494253 0.22294933669804007 0.5296492697414945 -1.4180010039816884
-0.28207365645482685 0.25524817742097583 -0.255397502465042 0.32023663092704513 -0.4819548711571975 0.7376500462620932 1.5421205237100377 -1.531831374397383
-0.38090162811108574 0.15601891719102123 -0.3618537382297278 0.17412852460904038 -0.345335676657506 0.23310164664096256 2.881693214972413 -0.8164586994386105
0.04274188614730878 0.3390587946537885 -1.030323595641012 1.902115392537763 -0.8104252759013049 -1.174043121016225 3.007527103775276 -1.7305027162325928
0.41636077561996876 0.628419328387072 -0.7318500601709177 -0.016617949728595205 -0.3117521062315749 1.1204743354695967 2.823545323660654 -0.7406017255561794
0.2206181551344948 0.46098274971979825 -0.33833079747227457 0.27261488242030174 -0.3760660277655692 0.8341014862808953 1.0727736464789523 -2.0037474050756137
-1.2579503200891307 0.48586144318683333 -0.39380196572796744 0.7387564092332294 -0.352638178284282 0.7568612104717873 0.18553156008324678 -2.6718092957110002
-0.1432872502266686 0.1273915035816665 -0.07086503047229345 0.4159194418556479 -0.13819717531716535 0.2997480411095318 0.28203233163266284 -1.524351399544153
-0.7239741313003292 0.10357257388221736 -0.35670928980522426 0.5430412964559347 -0.010532049904272256 0.290047586265079 0.4211897942615194 -1.4147530722450572
-0.6946262311666377 -0.4497374576233334 -0.3318544239053187 0.13297785452090413 -0.2619286998925425 -0.07886325122390447 1.4501972777426189 -1.4777602184414609
-1.028665789749633 0.5050573922069964 0.5691742382501316 -0.06474520359060687 -1.0148954909491839 0.11136159950631835 2.474184278033344 -1.8067137819591714
-0.5349322328997435 -0.0977997773110097 0.9746663590383788 0.7208944259386396 -1.1794553159569836 0.21009116062405253 1.7833773961336232 -3.5498231618874634
0.5462568087594109 0.17264440769379766 0.2177203811348521 0.0070083378671246255 -0.22737112248470295 0.21088929406484747 0.5355882497996747 -2.531005562717472
0.5110009262104982 0.39943027686229504 0.3681613581539343 0.25286523678742023 -0.5183522422270189 0.3003548475662928 0.5640381212429214 -2.2889974147055256
0.075448408009966 -0.08854060334124522 0.11680931093285962 0.18854665800974607 -0.2706007533499883 0.2399315735275246 0.4180872913192769 -1.5107987449153364
0.2568579260033539 -0.10345775890454204 0.1083807774820929 0.2187127110679767 -0.06483671643093891 0.15869029951248792 0.31411480408831893 -1.496865370437638
-0.7723400372916224 0.005761682232346854 -0.31137350229256333 0.1190781735023482 0.0031845161037085123 0.3214294184526516 0.9165358167152746 -1.4671739909020192
-0.4591425356369795 0.196756227736952 -0.6156316484836541 0.0915390615855401 -0.3262748323014404 0.1759909682662229 1.265630741703685 -1.7178032891005866
-0.7563558612238489 0.237349104777776 0.28306904368182473 0.5927445782990283 -0.8738194271209808 0.3969717133927143 2.730655786674488 -1.0002217598755188
-1.3809417128721568 0.4531991689192766 1.2722048282599694 0.13102559887904253 -1.9632891055577801 -0.3382637385446719 3.485591133265777 -0.3703288950587016
-0.7601064991125872 0.7286218629612993 0.5923504175999665 0.4100283999562413 -1.2913278250316162 1.9076081052500182 0.38569823750269006 -3.3803892607367096
-0.47346219385726873 0.19638724412399888 0.16003006174899087 0.037279777401234476 -0.3189551817664909 0.44868175733277016 0.20853713903245885 -2.121385541066616
-0.1929488976449253 0.1729919696714828 0.08811846662843131 0.1653430425425409 -0.29822451564942454 0.2154703914656212 0.399730455773179 -1.5543557574418436
0.0612025651142829 -0.20083707825181157 0.08555377797700531 0.313860675071619 -0.2611512830870717 0.29229148199560484 0.20795908313633174 -2.2583056687787026
-0.9103093732598219 0.13364723819541213 -0.10707138418720935 0.1146976457480487 -0.2666381963589692 0.2446106617756123 0.6262129657829263 -1.5617272260226178
-0.4669998729868817 0.3828741007392552 -0.34521098555763935 0.09277975034065022 -0.6729198091515762 0.6376515611113684 1.3182187983380231 -1.012098906967363
-0.8406377304957655 0.16339603941455777 -0.7560781016646237 0.41799166924495 -0.433004330689005 0.3478878079762795 2.828421246473017 -1.4049194613417155
-0.7610274726278581 0.12111370303259231 -1.461097212933716 0.917924475293717 -1.4562179846725152 -0.5046294870314303 2.5748817198822884 -4.269275785936635
0.5196772090067352 0.5295003182847771 -0.760842266248185 1.4031280930755308 -0.4772983660449541 0.38928680465431764 0.9670004442878033 -4.312931716378864
-0.14943412791813093 0.09864708817150183 -0.16225716436594373 0.4697586494591742 -0.09711818819070839 0.1896762024255194 0.09708541045358099 -1.8851099364369457
0.2701696885186423 0.029510985537182455 -0.11598329690675278 0.1198733187860977 -0.4339116193826867 0.454709841735754 0.2313781876427038 -1.743298208790986
-0.0801047046679435 0.030941161884037255 -0.01664959569587718 0.09090950430994867 -0.16360781586554818 0.055330810170790695 0.06379297347467666 -1.4809056912114114
-0.6813890718435959 0.03508442992217353 0.15187335604311814 0.502973643373009 -0.3506649554859761 0.1940018638873604 0.8058029245981249 -2.0821601447339138
-0.3808809654135379 0.21323824277352585 -0.4473363283919962 0.15709846053611864 -0.33914843142453854 0.26895266751337776 0.7610722971359256 -2.0236289857431666
-0.8966393425533287 0.08231361002859168 -0.6429659790050909 0.952386089075609 -0.5152752617561349 1.215204600998208 1.605010769981869 -2.116909267421734
-0.28505763621716973 -0.23381489934513078 0.20850384390300203 2.833161136598895 0.1436683139195889 -1.0986130435717 2.5308422591149036 -3.808563939518706
0.6334469229701076 -0.2043091329563103 0.7756933453031696 1.104190814068224 -0.3426829922875294 0.06051234100713798 0.7062171867072751 -4.869495218751924
0.30536085213065856 -0.0743744905149902 0.28940538815703354 0.011682048905389208 -0.2143536949792526 0.385168785510551 0.3339979698049187 -2.4199038520502345
0.16871815418979808 -0.028885500587058355 0.12011681096831406 0.1290161419419546 0.05336300731447041 0.0019299193504725976 -0.04561407472023549 -1.8345503387879274
0.44787618730451584 0.09873595409892377 0.15962146461530607 0.4919137046392039 -0.05195890762145691 -0.05419537667754604 0.09731741803670521 -1.9684682389521684
1.6451116418491085 -0.4892865795574755 -0.03919844857358862 -0.41214964443190905 -0.042867333458765255 0.5592280508492768 0.9449523966373738 -0.08129699080269326
1.1302240772173942 -0.3656686465165189 0.01373790901150096 -0.05799055360879435 0.005622424491744882 0.4579061556570236 0.949904664396716 -0.061389955084530046
0.9172855687724183 -0.18350954730824784 -0.0475730295620545 -0.15055576246800512 0.025746251414252797 0.5349513607487923 0.9267117115355695 -0.02874619528828304
0.5581489306536622 -0.033157714986237374 -0.008061400556563361 -0.14179909359501128 -0.1752664490606607 0.3364385367331413 0.7743980862233617 -0.011949914511866055
0.501809979942648 -0.07045820847943214 -0.13138240485411334 -0.22149154902304066 -0.15532188085641718 0.46463549886673894 1.0269836160584682 -0.02375691199791874
0.8890425998328931 0.3000672185790007 -0.16479400404061104 -0.4797881247814526 -0.259662439876419 0.5359393055555433 1.468817680069242 -0.14846702568154235
1.2295855046659894 -1.662842690645585 -1.7542284614716919 -3.3177177519961973 1.8333027933247834 0.7690349342929768 -0.7089593210769145 -0.5887414072054984
1.8236171897109859 -2.9267093128246797 -0.30920484631709266 -2.968937412607037 -0.039134343247911874 0.2960199759147635 -0.8963966186703729 -1.0017606584247716
2.1080770386274765 -0.0880644366231716 -0.18779193782680664 -0.5074173864791676 -0.06834331936597615 0.5827012681755805 0.0007736131633411247 -0.3707969594581537
1.0068799537641937 -0.0943745716372615 -0.04747099686200998 -0.4034065562736145 -0.21353999147571 0.4406148095828708 0.9628656755138648 -0.15291882435798254
0.6844636358681822 -0.04037719601387427 -0.0020903125035407755 -0.15093342318782052 -0.13219189277673093 0.3024211450802299 1.052931882128744 -0.049024631451380696
0.9301510685554857 -0.23402615981192937 -0.1163948455934317 -0.5937833830824595 0.37815921092362104 0.04737019333090975 0.8981813831999365 -0.01282972279673178
0.5250805902032947 0.019592537252618586 0.06405119458091194 -0.007962082277643362 0.02288751868381106 0.13392268370650862 0.9881168023477009 -0.026093560956837902
0.7208818335379636 0.33781446448776853 -0.19147047767802583 -0.6449880258605769 -0.20748167410647134 0.35648023448412425 1.4424408208247643 -0.12946433517402522
1.9052567702405332 -1.9961949642896872 -0.31463630762697115 -2.5368237176816812 -0.04898602052901602 0.09960797266700183 2.588421111606614 -0.9983899594224219
-0.2975647145956799 -1.1221256915419824 -0.8150093104843616 -5.914839226159012 -0.08182027034290407 0.14895184778400505 1.800863610768289 -2.4457691175212943
2.186885561739105 -0.15429932647323719 -0.19554215976705291 -0.39370688253234787 -0.0906719884818159 0.2773407453503647 1.040031294699685 -0.13536717135299847
0.8193876163502207 -0.03725986002504017 -0.024442769526204666 -0.06831619263942734 -0.08939016987561854 0.13224220307755052 1.2540630740181213 -1.1184954751836984
0.46975321703532524 0.026941528534221992 -0.04269146854853586 -0.21016502038532706 -0.07285082707382756 0.2015409090330289 0.8848311587219391 -0.1878622367293042
1.5135640181133148 -0.059212771591239596 0.0848025363560761 -0.2901283026588404 -0.15831545636813787 0.469637436244277 0.8570402954314762 -0.07005835245711811
0.33442362952546156 0.03816947101567855 -0.05945016072904048 -0.03134411906639081 -0.2596041606738537 0.4071390561460938 0.6707413529005157 -0.026450303286827348
0.4213776367754437 -0.05639558496412275 -0.07636776838715476 -0.1651639185379667 -0.13895887162015177 0.28452062575297354 1.338947027455072 -0.02572726271781489
1.6305097471834948 -0.04912380476302547 -0.2851283332632608 -1.1940285829356179 -1.1207236867771613 0.8210044461415702 1.5685575900690498 -1.983781076863135
1.4610228639306344 -0.30603252365722555 -0.2858046728956043 -1.051451572443019 -1.5126948458135798 1.5593716980198726 0.7328865862712526 -2.4866035805195636
1.4481473410617731 -0.10004818916618279 0.0638341769948847 -0.02052481067882217 -0.19804698631981654 0.38261689407032606 0.9028352999738662 -0.597154674147045
0.5020987946383177 0.014797760907251933 -0.04167219489971202 -0.10939848603094915 -0.2308176993994755 0.3173049925770367 0.9022647710986494 -0.23248105837631217
1.0796928793212324 -0.09418903955046797 0.030431103170641766 -0.037815469254235345 -0.14086825156190175 0.2144689599894427 1.083803206126998 -0.17583218330721584
0.5505819618316358 -0.11300378280936098 -0.23670396779281816 -0.30494941588530455 -0.24508616697999172 0.3838239212182209 0.8178701890784041 -0.1281435036073103
0.37250639819480263 -0.035796291442371654 -0.14441318737389086 -0.20666353068741836 -0.25633466081878153 0.3314184464683556 0.8112841846802555 -0.01362379078502196
0.46530083434815583 -0.07473223501822045 -0.1542765688955499 -0.3176771871735221 -0.11748489292635389 0.2836221713240625 1.1384108328973337 -0.059969319081296324
2.386953989165906 -1.0801133874117237 0.054396880137900894 -2.286461165595435 -0.8712681758082508 0.6012871993618791 1.129780111105191 -1.675182747669048
2.198218647944922 -2.042558739635256 -0.08117767180681845 -0.8217922649218874 -0.38904130390433966 0.4133903041020659 -1.7272684745769595 -1.613588369600178
1.1021673355954076 -0.2950641104272417 -0.07453612006912982 -0.310509099585461 -0.2516453348423659 0.5162032639154803 0.9606817849116944 -0.5193526888255453
0.9975567079786445 0.08621248123932276 -0.03450808885709253 -0.26464798193728933 -0.19682615233559497 0.3838577853854481 0.9006469670147204 -0.02771694816065018
0.48971321429136483 -0.2446411617413523 -0.3160824355556898 -0.23623138565194673 -0.14748391310143705 0.37720809399167987 0.7535236579308384 -0.32474260251461606
0.4166976611967456 -0.10620174496348686 -0.15793745455580255 -0.1664884097178777 -0.20006408887257504 0.3550748524864939 0.9008312361836699 -0.0616549625128604
-0.24309010904965878 0.0648810819263374 0.08029651228593912 -0.04120392412068152 0.1655684117838815 -0.11940285386728466 1.0857393288168424 -1.3051183112737719
0.04676642701850314 -0.1119368533498874 -0.052843981786149935 -0.14402473899373547 0.043313998779131 0.06697198252629022 1.1729744067161498 -0.4147733346483615
0.1906492042467482 0.14584375641398784 0.07615139524721726 -0.08690344149445686 0.07809982142262473 0.013116255692748435 1.1064000424984228 -0.31024246055417787
0.4673322998386408 0.34299052274907 0.06777977951563263 -0.1630133094678016 0.15585609055872618 -0.20218423679185982 1.2174346221986077 -0.43462737455328826
0.6530507911314667 -0.13923507532356527 -0.016123481433754805 0.017115925720218195 -0.06085599799812513 0.6982090742519644 0.9675974881697393 -0.9908247096364491
0.18194991386347642 0.23827520858547024 0.06301456709463277 -0.07955103803769759 -0.42680633821914754 0.4772417332696528 1.0980792887556161 -1.3398385131037758
-0.10072111523690874 0.2256304642106936 -0.005975374291372015 -0.003994538298610961 -0.2417035223361399 0.5551123528531594 0.4842534075894047 -2.270874047234567
-0.004782494488566713 0.18753959482764704 0.13916602101573367 -0.11890741299628527 -0.07131462567644509 0.03691430493164771 0.4388695713886337 -1.9964639036877074
-0.3402996023853897 0.20009921803288877 -0.1498037847538409 -0.3219310480235606 -0.10443380949586789 0.34007337962829143 1.1764277934963405 -1.3022080712207948
-0.33746484719431014 0.009587555109504653 -0.005849696098691903 -0.3184291640246065 -0.034793499077857115 0.2434527256018864 1.243110921843206 -1.359523961641623
-0.048767616218281296 0.047714364682966304 0.12436960639158712 -0.4645721562213752 -0.3585191381062982 0.5841741741388911 1.2279514873687754 -1.577725566136058
-0.11802892144912658 -0.010636273799303597 0.16245606936554852 -0.7685095933986907 -0.18424751013480195 0.15625506845640613 0.8982460571151678 -2.0516397158101505
0.11478722504723533 -0.03736437795005826 -0.0006438244422694028 -0.14121197937756946 -0.12490382016947787 0.45704238793412977 0.4046268371731072 -1.2865019495033907
0.13915669982990875 -0.30309288855933053 0.0365543775505337 -0.4132931256995082 -0.02622685572336647 0.498186404853861 0.9310503754284616 -1.604262789446051
0.026627303903054296 -0.017269668998429903 0.047647422952027174 -0.009023897451240603 0.012657608975338075 0.05495737533574707 0.05905293189329519 -0.9837397010041401
0.48553388361570415 0.0976912629256467 0.04118931055809527 0.03425707395115685 -0.009706409022471996 0.13983350531626582 0.5706606163425025 -1.946190572880918
-0.21750092412738942 -0.3511635222996049 0.02841496927823134 -0.28762845530876274 -0.031861265368285874 0.497231381408744 1.110083826926524 -0.7998055830538531
-0.17940622273687912 -0.24232150158486876 -0.127260712715766 -0.2587698865639855 0.03316297158128498 -0.01820683562373482 1.4821052462881341 -1.18296723284654
0.158272146956205 0.002350555429041251 0.06990675531618895 -0.310478432659017 0.04592799786633972 0.09110417267674298 1.6245229406955515 -0.8095275948638141
0.14521622666250555 -0.28427639680505223 0.18785179272031421 -0.14441912769092646 0.4216621027911911 -0.06758761393432078 1.4484695355809092 -1.1598282822106307
0.4822674997051094 0.008655092752445567 -0.007382384050012125 -0.22399242973530298 0.010661164935252154 0.13274370710227978 0.838522076828935 -0.9500793220173542
0.2744234915870977 0.15109864828456815 -0.06222660977447653 -0.23248752593637056 -0.1803374830329043 0.6118785965153566 0.5996901885289938 -1.8503122504335776
0.03876273472545072 -0.0010396802856904586 -0.04731314580552026 -0.14894220024077964 0.13014951692799048 -0.022228446232404053 1.180913508779835 -1.4778359524684923
0.17169297056482913 -0.4633107143469627 0.05938301746804775 -0.2905790871504885 -0.27302214914556944 0.9290784534472595 0.9288386516558056 -1.6626948566038264
-0.4286544813659814 0.13645801761582915 -0.22576639754273975 -0.3145997205638301 -0.042552126667392054 0.32381812546522726 1.1294128145600442 -1.2890053561938184
-0.332642509690272 -0.12840374170348806 -0.13753330529732546 -0.16807667913964758 0.1426351605359657 1.264116007004317 1.064943921262247 -0.8218004931771208
0.042121092968989915 -0.27981468062568643 -0.14231274658491286 -0.16702684639669188 -0.08322158507918812 0.600512205639059 0.743625086881765 -0.7124634550650113
0.2854179024368699 0.675308222647981 0.39329385921510496 -0.19590332645470676 -0.08331427199448438 -0.03980304752944086 0.667999443148581 -3.693199278201548
0.1453666640888781 -0.03355049398655818 0.061125392553515456 -0.14405722660048376 0.11205769086029127 0.051373804517590216 0.9929020439036457 -1.5736768051727255
0.2968975671330467 0.021739571303161842 0.07198846694388628 -0.0018701722810328114 -0.007193063799444288 0.15430715066946454 0.06322796760681149 -2.3129672753135715
-0.1507153643125827 0.08591666162214806 0.15727666814238428 -0.1955798300684185 0.02745790802065229 0.01771454222138047 0.41873139586188524 -2.2883882231694526
-0.10977725659452742 0.020125015561201165 -0.008175285805808508 -0.23977055758380061 0.07080211005244808 0.005615026601018425 0.0722073652498425 -2.341394242349206
-0.6401740448214464 -0.10609132726620904 -0.11002032332434247 -0.34551471432460973 0.27519002922990476 -0.0036609766531037202 0.862160566268561 -1.2922023492651935
-0.4307849205336134 -0.3000569331413696 0.16044601825018842 -0.24020578308361684 0.3703773698123408 -0.19440785620140244 1.484025244433612 -0.9583022595844772
-0.3322411688171123 0.005727310221649573 -0.10053967368354833 -0.2476061225227285 0.06999273320452032 0.05189885923255644 1.4479322467312499 -0.9233031098436778
-0.38009446703394634 -0.18543356786419518 0.2274700849409902 -0.8392260077312739 0.3495491626609142 -0.321594546461065 1.9133910907066114 -2.0705636244447048
0.870558851109181 0.11192621261933856 -0.058413919196032615 -0.4759088494849556 -0.03382596746986544 0.21263233612352161 0.5419117696278352 -1.3290952765726576
0.5417133233596182 -0.43896767037242174 -0.09268213011427201 -0.346937523193516 0.14236407212030788 0.38257754754588447 0.2721354942696137 -1.7000677807282725
0.5300538668321876 0.2993749464605364 -0.04255495636348289 -0.3182712621136279 0.02385464621779476 0.6837647889055087 0.3504803690992053 -1.6706793484862434
0.41877818561171687 0.14386064745342103 0.008134081831870865 -0.6309447089633833 0.0730217101224554 0.12093326134364646 0.7885245332459725 -1.8048943623120284
0.16211923140580947 0.014953069615591036 -0.12878967032844685 -0.1442695076666336 -0.13046829642002822 0.5959409243135082 0.7614449319977834 -0.4482529673880602
0.04934907041353892 0.10276204391416877 -0.012411033459807638 -0.14768536186318926 -0.023889775909597233 0.7030093368745618 0.8994814167535465 -0.27582252627738635
0.34540093300681096 0.0031131776902422192 -0.10411063762289643 -0.24470373114134825 -0.3651117060802102 1.1152693105651579 1.0938265079825749 -0.33634606427698865
0.5382531173756302 0.2936807468958371 0.6755117297936195 1.0396601931550569 -1.3493773460921892 1.3147096808284475 1.9721621842653345 -1.62826865064409
0.7849220754940103 0.01334541062298955 -0.043418698180361426 -0.14399307365536174 0.002426005312486601 0.9470020383565548 0.6171175983830801 -0.375624886652128
0.16604238580645714 -0.11109499437114098 0.017692015105793046 -0.07775484522756931 -0.14644747528695307 0.6143290067213212 0.9327515705868337 -0.368075520730652
0.42173882950004826 -0.35576279436127395 -0.03275483559484477 -0.42338454382444585 -0.08769356052432453 0.810835420699493 0.5636394205459712 -1.914140694393078
0.23521655680549836 0.0326159160063241 0.022965757222839778 0.0016644372290597897 -0.17529191371212832 0.5266429089882914 0.79822563072531 -0.4402321422677643
0.17096066727206155 -0.02367027759314455 -0.09957232953467703 -0.1277927448229755 -0.13403018268403805 0.6029474545998352 0.9073875001635318 -0.6709150106538281
0.04736453600444901 -0.2577643090479356 0.00636532480048306 -0.05223857179796812 -0.04067012062598235 0.46007458858907896 0.9667421876460276 -0.3127324955066571
-0.3930367993597339 0.2945671907689461 0.11863149424757324 -0.1782797411104482 -0.2399129478658557 0.424820425716798 1.8343839338576724 -1.1825799839282936
-0.04489323085981334 0.11101826036724308 0.0487641851472862 -0.20738844305635118 0.030927801494702867 -0.049620800773546136 0.2160183464329215 -2.481150913189427
0.5296895038584788 0.6096908567590655 0.07624068473890172 -0.22951967721478628 -0.12464547633348844 0.19123637546602268 2.0356571418586022 -0.5023744835714297
0.04885302975442701 -0.029277637435893455 0.12124143300656706 0.037784616679134686 -0.053929468268633804 0.0397993807598771 1.3035902446002376 -0.2334598140596571
-0.14825461540047635 -0.3805038153141344 0.21427205812905561 -0.09059928728361177 -0.11125922719560107 0.08165075946220901 1.3348121853351698 -0.6036228589066677
0.1016215477897025 0.048758135407768105 -0.04112060206202624 -0.031985652835571116 -0.07011857403972085 0.49415856912190215 0.6526674095141275 -0.5078509108948286
-0.09149473757646964 0.06739118356330354 -0.47383707070938846 -0.0305909597256947 -0.14915828487124405 0.6196814242984943 0.9094524828604882 -0.9485765446660992
0.11401497520010728 0.057306514596695834 -0.02279947342991029 -0.10217484995586618 -0.08849225880265713 0.6445732951282921 0.8529825642821942 -0.13177841440173188
-0.11672378054869281 0.11972164049205858 0.11188602465082931 -0.4132196562230508 -0.13438819024984505 0.2847760798072718 2.2598366822582694 -0.2968262028427242
-0.030675729935429885 0.8372374789526424 -0.3707448600947134 -1.9285598242941733 -0.09479437695342874 0.035036599793851764 0.5451833605828824 -4.900648076186931
0.5116927702930244 0.05218477650431316 0.08712494014445032 -0.06865570258628195 -0.009822913904592001 0.3261592579806649 1.179138381578075 -0.3679599344391834
0.4200595865995744 0.05156628377149758 -0.04254778945327714 -0.10993891026807645 -0.338290339317575 0.7339290564355255 1.0574928361534293 -0.17080409794902973
0.20620247120187174 -0.22208034020551734 0.046472661845499336 -0.10845799003033785 -0.18076140751973535 0.6257933214846196 0.9781747907031104 -0.7941748081525886
0.10551380124918072 -0.041648387961031264 -0.07606826205002806 -0.02596148297344214 -0.07971336178823862 0.7994191098503719 1.0830219260939284 -0.919220280511397
0.04975348285226722 0.016648688482431673 -0.2226621384831893 -0.2643399605609199 0.010209191578159582 0.44889592089912805 0.8456977219230538 -1.2369001072424983
0.09079320303842353 -0.10953329926517949 0.009210432500319457 -0.04628609439708278 -0.10240609331485283 0.6956716544348474 0.8650961043376246 -0.31430057223658303
0.07220777563085473 -0.31607896270472735 0.02166187160432953 -0.3293427375802039 -0.25651693261486697 1.6370703066859036 1.1041551370453182 -0.6516451047741652
-0.47130450447600447 0.6816735708672979 0.2774235506136449 -0.42930454440683885 0.02890970192355491 -0.20417827658109644 1.1542380377641788 -3.9257402582146756
0.5685237017968418 -0.011475891738579519 -0.06421477481860235 -0.09848652356095733 -0.26563090445743043 0.6693516889009051 1.0697073899504987 -0.3606390596578939
0.1566430220236917 -0.03457548115025608 0.009393729581087862 -0.19627886936539615 -0.08387838640902223 0.45353324095748304 1.07014832377061 -0.19380374436163988
0.4878190424096122 0.2546234478584187 0.0046179657999658175 0.07936419812102335 -0.3670185221972709 0.8253809125179974 1.0641259481605023 -0.5029352105662386
0.29149851949369093 0.07078624785110402 -0.025758562976229693 -0.2790574912140542 -0.2532444162080003 0.6478355082082772 0.740234595926199 -0.6553486148636514
0.1969509659588426 -0.08930123839391693 -0.3969196907877043 -0.17151294021473995 -0.188437612718942 0.7786867209777357 0.782335120730812 -0.41438390665296787
0.2793059657137834 -0.06831647845025504 0.01221098519117883 -0.2859389980023486 -0.25379254599514495 0.7397919016466945 1.0040671867844315 -0.5660031131727057
-0.2895699243418044 -0.26442902175368865 0.19106808859251034 -0.21405133859862646 -0.2865016926390125 0.56799346932692 2.166605695872836 -1.0185623344816817
-0.8780471317909484 0.8179851459097738 0.1679748607753715 -1.4777296699604885 0.12508782126659135 0.018342135344461497 0.6922769672650269 -4.4255019988988025
0.0502174049927131 -0.09568019485129192 -0.04822067235180705 -0.18676039137068712 -0.4409928625937375 1.0310118669636692 1.558359329118382 -0.09993306241949984
0.2977525455809249 -0.029314246065938437 -0.025809524016126684 -0.07166804053700376 -0.2555398705700067 0.6571573270523114 0.877744010289641 -0.32288155915898253
0.010928320842041872 0.09615147441854688 0.07212942479041423 -0.032235302428232276 -0.19777094781080695 0.5030638788501387 0.9942324784312924 -0.1440128726532614
-0.07716909138075434 0.07124808655342496 -0.004484286908431251 -0.14720316258036295 0.002576243106440723 0.8615846153410919 1.0522248751820362 -0.32698003308253354
-0.11744438800435625 -0.08085499546504743 -0.07823263427475628 -0.2117505827898319 -0.03257578707637362 0.2608080055756827 0.5869242629601221 -0.9161705255029511
0.004382928590098478 -0.08734031967140343 -0.07427052650053498 -0.12921782964415607 -0.07667586675447671 0.7431090910948588 0.7677419856644563 -0.6954326999029045
0.1544959068067835 -0.26563796388558963 -0.09617003406092628 -0.1185710251821491 -0.054279818102018894 0.20406689055398453 1.2791715638394316 -0.14917150581833172
-0.17657392471338984 0.06280992746988523 -0.1744623565102991 -0.2796739497385413 -0.46666359534238455 0.38180739789120466 1.9927078202119537 -0.39540213896201104
0.1400682699584553 0.030149746547372944 -0.14695875974795466 -0.16577445859341633 -0.0839355902089785 0.6005574255859613 0.915794768862756 -0.12749980303982889
0.10804170522447991 0.006701083023700871 -0.13773732310434017 -0.10979896430535674 -0.12393857966100236 0.7071677656030816 0.5605121850620827 -0.8939627950586739
-0.3610431770049416 -0.14595630895400669 -0.21567093856290037 -0.4666682826577831 -0.4160251842796112 1.3610076866409595 0.7860641314714076 -1.160814986341726
0.1321723000719369 -0.1394264346139309 -0.051014231228778684 -0.03904900671537309 -0.14328816747013196 0.4355833339919277 0.45196252687955063 -1.180008251556768
-0.3065565847177023 -0.1529294523665118 -0.2580413209128589 -0.0076411829240485285 0.12977874152213137 0.7423505584361216 0.7179813404824773 -0.7826952815414365
-0.26726990419284014 -0.21828838918983748 -0.16686428928776584 -0.16354864870478553 -0.15002057017605697 0.26842347820159823 0.8354081106801433 -0.900921283280075
-0.6320722075779044 -0.08028450112065011 0.187726193802005 0.003505507747763259 -0.5940034630094437 0.24897165387109266 1.405096614368346 -0.6399936199850011
-0.465429063378187 -0.32236728483407334 0.45628819915749 -0.379236146605735 -0.3081368196289865 0.14403872047757726 1.157641811226283 -2.3058044360304475
0.1750236366975132 -0.11182569224524366 -0.06994345478107677 0.03107535587084037 -0.14049558317371758 0.2820831188322521 0.4731897685316093 -1.7107786896353285
0.20713608643583575 -0.04825580342722274 0.0050364107872666874 -0.138504193444824 -0.29025467172630237 0.20056892736785104 0.609916748806201 -1.8224173164304012
0.15211498176432486 -0.0334279435622496 0.005280004097767521 0.035151045988553675 -0.11501204586087443 0.12107171207448011 0.3484999736779084 -1.1443810099559708
0.1253240779425935 -0.2824482095364167 -0.07941801199380617 -0.1423680246161569 -0.11813785163485604 0.1867395080843367 0.5106241825289408 -1.2709073666364379
-0.06139277190388526 0.11744194643000483 -0.1751232014171646 -0.23526994781961258 0.11754428423166424 0.30653391197784985 0.6259768553390783 -1.1349943866184409
-0.298205310933384 -0.05036752617850648 -0.25548410630180796 -0.1323160911140145 -0.1279405729041415 0.29468946780117067 1.0084571244760696 -0.7186636054261774
-0.18443884917462827 -0.08550786571895302 0.032807995059637274 -0.23116157315891847 -0.07406284990514814 0.8035174925475073 1.1968839140076988 -0.29993308959928466
-0.8738711406099469 -0.08932696615408102 0.33705513169009094 -0.37218706479716757 -0.43431670863560556 0.21193444140621231 1.9605325724478724 -0.16988948730199382
0.0848133719771953 -0.3797375546894869 0.002361928948507175 -0.6436070574557506 -0.45597091361440756 1.7712349509210563 1.0651208785199153 -0.5891616457807349
-0.2946880983031278 -0.28754821716670154 -0.008527075627459524 -0.09647444114208126 -0.24941051106179146 1.0014928039486664 0.2119390284188316 -1.2595541271429975
-0.016586886793807876 -0.15685507834942702 -0.02184197304091534 -0.12426554952267355 -0.2727930723477593 0.46808607984850403 0.39726516964463265 -1.2267784464908504
0.45088697889499185 -0.032961205457731645 0.027642433106992353 0.06958090961555902 -0.1801628225133438 0.2284442159599176 0.5627646295873928 -1.4052467619510016
-0.028447852316270672 -0.18113066130031263 -0.18538152822681594 -0.33580619051160226 -0.11719489204268738 0.17679993488276557 0.7821741816995652 -1.0788606295670764
-0.20376567026523357 -0.01379930202358956 -0.12719652199724932 -0.14449755976955442 -0.20225983341817888 0.7724278934196216 0.6644124153601241 -0.6273428246380307
-0.12660777907277698 -0.30990754262626874 -0.10711222352946112 -0.2538533677182137 -0.3351637390757912 0.4308872081474713 1.2677088287883873 -0.289407813574695
-0.9579362256752195 0.024631795617862107 -0.17248011171771044 -0.5390697363748516 -0.6358545200192013 0.17382532051220778 2.1654794606839958 -1.2105024849776433
0.15268861004759748 0.20561876897130738 -0.5480073987349761 -0.18602886132771101 -0.19426224667669312 0.23201657273948895 0.7780203970370323 -2.561108822781722
-0.004803712761066892 0.028792377872335448 -0.06957470778078322 0.17598921603461537 -0.05150616293885901 0.5872360272205723 0.29936253494206744 -1.4693250496924186
0.0036857160632021158 0.1748624403515325 -0.12126581312422458 -0.06027250708200721 -0.18792682151877046 0.5686793566165671 0.28269394948400683 -1.1743995453490013
-0.08783470874173274 -0.010581185293149303 -0.13443874112184487 -0.13918306273946426 -0.14408495394867638 0.07793427470253989 0.07326938193287424 -1.4244379989213145
-0.0666705180932552 -0.1153402558950434 0.001034039298435263 -0.14869669480617265 -0.15144633876967897 0.13490355519650188 0.6626401739778516 -1.5195027779300632
-0.17192266421048996 -0.4498223523982771 -0.27060556294856275 -0.10818497565244001 -0.2088507682423374 0.20438524674454128 0.6776645449408634 -1.3807229087273791
-0.37014274130791003 -0.2237553489730412 -0.06699839140159881 -0.11238299280862324 -0.1561774642913683 1.176090188699034 0.8368775031525775 -0.5727277647622253
